{"learner":{"attributes":{"best_iteration":"99","best_ntree_limit":"100"},"feature_names":["equity_ratio","roa","size","operating_cashflow_ratio","gross_profit_margin"],"feature_types":["float","float","float","float","float"],"gradient_booster":{"model":{"gbtree_model_param":{"num_parallel_tree":"1","num_trees":"100","size_leaf_vector":"0"},"tree_info":[0,0,0,0,0,0,0,0,0,0,0,0,0,0,0,0,0,0,0,0,0,0,0,0,0,0,0,0,0,0,0,0,0,0,0,0,0,0,0,0,0,0,0,0,0,0,0,0,0,0,0,0,0,0,0,0,0,0,0,0,0,0,0,0,0,0,0,0,0,0,0,0,0,0,0,0,0,0,0,0,0,0,0,0,0,0,0,0,0,0,0,0,0,0,0,0,0,0,0,0],"trees":[{"base_weights":[-1.9452064E0,-9.9544764E-1,-1.9584806E0,-1.4265254E-1,-1.6679485E0,-1.6649615E0,-1.9688723E0,-7.071207E-1,3.425532E-1,-1.7571592E0,-1.5348837E0,-9.492274E-1,-1.7814772E0,-1.882755E0,-1.9753073E0,-1.148718E0,-5.646867E-1,5.598756E-1,-1.270903E-1,-5E-1,-1.7583174E0,-1.3660206E0,-1.687031E0,-6.494465E-1,-1.1452992E0,-1.8775356E0,-1.6139833E0,-1.9235762E0,-1.807049E0,-1.9838781E0,-1.9547256E0,-4E-1,-1.2566372E0,-2.1212122E-1,-8.255319E-1,9.52381E-2,6.481481E-1,4.966443E-1,-3.3112583E-1,-1.7594792E0,-5E-1,-1.4586467E0,-1.0555556E0,-1.7105263E0,-5.6E-1,-1.28125E0,-5.625E-1,-1.0396119E0,-1.4567901E0,-1.6859386E0,-1.9060417E0,-1.7018478E0,-1.5151515E0,-1.8694737E0,-1.9360996E0,-1.7194343E0,-1.8610808E0,-1.9839114E0,-0E0,-1.9278567E0,-1.9651331E0,-8.292683E-1,6.666667E-1,-1.0497237E0,-1.4567901E0,-3.148936E-1,5.8064514E-1,-9.7472924E-1,-2.7096775E-1,-4.7619048E-1,3.3112583E-1,3.9679357E-1,8.5811967E-1,-4.347826E-1,6.4615387E-1,-7.42268E-1,-2.2813689E-2,-1.4674735E0,-0E0,-1.0900474E0,2.2222222E-1,-6.2068963E-1,-1.7384442E0,-1.0476191E0,1E0,-1.4336283E0,-1.0526316E-1,-4.1551247E-1,-9.917355E-1,-1.0817392E0,-4.6153846E-1,-1.4874371E0,1.8181819E-1,-1.1919192E0,-1.7182236E0,-1.8181819E-1,-1.9072819E0,-1.7377812E0,-1.5411955E0,-1.4198301E0,-1.6570429E0,-1.7245136E0,-4E-1,-6.666667E-1,-1.862354E0,-1.9712152E0,-1.9885207E0,-1.8271968E0,-1.9327976E0,-5E-1,-1.965169E0,-0E0,-1.6190476E0,1E0,-0E0,-1.2941177E0,2.5E-1,-1.1578947E0,-1.6444445E0,-4.785276E-1,5.4054055E-2,8.8372093E-1,-8.695652E-2,-1.0215265E0,-3.8297874E-1,-6.5384614E-1,4.7272727E-1,-1.1724138E0,1.0526316E-1,5.660377E-1,-2.0408164E-1,1.5916955E-1,7.1028036E-1,9.36E-1,3.8202247E-1,4E-1,-1.3333334E0,-1.1764706E-1,7.3504275E-1,-1.2941177E0,-6.097561E-1,1.0714286E-1,-6.976744E-1,-1.7948718E0,-1.3868613E0,-4.864865E-1,-1.1910112E0,-0E0,-1.2E0,-1.7531428E0,-5E-1,-0E0,-1.2941177E0,-1.0344827E0,-1.7288135E0,-6.666667E-1,1E0,-5.7664233E-1,8.988764E-2,-5.405405E-1,-1.1627907E0,-1.2035661E0,-9.022869E-1,1.6949153E-1,-1.4444444E0,-1.6094276E0,-1.0857143E0,-1.4754099E0,-6.666667E-1,-1.7250966E0,-6.666667E-1,-1.9092205E0,-1.0344827E0,-1.5196079E0,-1.775529E0,-5.6E-1,-1.5719063E0,-1.4379392E0,-8.196721E-1,-1.6929134E0,-1.3282443E0,-1.7561994E0,-1.5512666E0,2.2222222E-1,-1.2727273E0,-1.2E0,2.2222222E-1,-1.8627738E0,-5E-1,-1.9712558E0,-5E-1,-5E-1,-1.9328909E0],"categories":[],"categories_nodes":[],"categories_segments":[],"categories_sizes":[],"default_left":[1,1,1,1,1,1,1,1,1,1,1,1,1,1,1,1,1,1,1,0,1,1,1,1,1,1,1,1,1,1,1,1,1,1,1,1,1,1,1,0,0,1,1,1,1,1,1,1,1,1,1,1,1,0,0,1,1,1,0,1,1,1,1,1,1,1,1,1,1,1,1,1,1,1,1,1,1,1,0,1,0,1,1,1,0,1,1,1,1,1,1,1,0,1,1,0,1,1,1,1,1,1,1,1,1,1,0,0,1,0,0,0,0,0,0,0,0,0,0,0,0,0,0,0,0,0,0,0,0,0,0,0,0,0,0,0,0,0,0,0,0,0,0,0,0,0,0,0,0,0,0,0,0,0,0,0,0,0,0,0,0,0,0,0,0,0,0,0,0,0,0,0,0,0,0,0,0,0,0,0,0,0,0,0,0,0,0,0,0,0,0,0,0],"id":0,"left_children":[1,3,5,7,9,11,13,15,17,19,21,23,25,27,29,31,33,35,37,-1,39,41,43,45,47,49,51,53,55,57,59,61,63,65,67,69,71,73,75,-1,-1,77,79,81,83,85,87,89,91,93,95,97,99,-1,-1,101,103,105,-1,107,109,111,113,115,117,119,121,123,125,127,129,131,133,135,137,139,141,143,-1,145,-1,147,149,151,-1,153,155,157,159,161,163,165,-1,167,169,-1,171,173,175,177,179,181,183,185,187,189,-1,-1,191,-1,-1,-1,-1,-1,-1,-1,-1,-1,-1,-1,-1,-1,-1,-1,-1,-1,-1,-1,-1,-1,-1,-1,-1,-1,-1,-1,-1,-1,-1,-1,-1,-1,-1,-1,-1,-1,-1,-1,-1,-1,-1,-1,-1,-1,-1,-1,-1,-1,-1,-1,-1,-1,-1,-1,-1,-1,-1,-1,-1,-1,-1,-1,-1,-1,-1,-1,-1,-1,-1,-1,-1,-1,-1,-1,-1,-1,-1,-1,-1,-1,-1,-1,-1],"loss_changes":[1.8045E3,1.1335823E3,4.2775E2,2.3927379E2,1.0423096E1,4.01792E2,7.19375E1,2.4746613E1,4.804126E1,7.409668E-2,9.29541E0,3.9196228E1,6.3895508E1,2.5914062E1,1.85E1,7.3754425E0,2.8081131E1,1.3124512E1,1.9190422E1,0E0,7.5927734E-2,4.76532E0,5.218567E0,1.4166168E1,1.1966492E1,1.1192383E1,1.064917E1,5.546875E-1,1.2649414E1,5.90625E0,6.6875E0,6.8487806E0,1.9806366E0,1.0937475E1,1.4318718E1,7.234311E0,1.390937E1,5.4682674E0,1.4338651E1,0E0,0E0,2.1405334E0,2.6221695E0,5.858032E0,5.8019047E0,5.5833282E0,1.4730064E1,7.031769E0,5.355072E0,3.538269E0,4.5458984E0,1.9299316E0,7.466675E0,0E0,0E0,7.9575195E0,1.8891602E0,1.34375E0,0E0,1.6875E0,4.296875E-1,6.7131243E0,1E0,1.4696945E1,3.6751556E-1,7.1196213E0,3.2130203E0,3.4441528E0,1.1342951E1,6.4993515E0,4.8616977E0,9.179821E0,5.065178E0,4.846377E0,2.2930117E0,2.7575474E0,5.8411946E0,1.8721008E0,0E0,2.6350555E0,0E0,2.6068966E0,3.1600342E0,1.3557425E0,0E0,1.5400429E0,3.614035E0,1.475086E1,4.0408096E0,5.199402E0,1.4355354E1,3.1287537E0,0E0,2.7017708E0,1.2097168E0,0E0,1.8935547E0,2.6097412E0,3.782837E0,3.6170044E0,1.121582E0,4.32959E0,3.6767678E0,2.0444446E0,2.4414062E-1,4.296875E-1,0E0,0E0,3.671875E-1,0E0,0E0,0E0,0E0,0E0,0E0,0E0,0E0,0E0,0E0,0E0,0E0,0E0,0E0,0E0,0E0,0E0,0E0,0E0,0E0,0E0,0E0,0E0,0E0,0E0,0E0,0E0,0E0,0E0,0E0,0E0,0E0,0E0,0E0,0E0,0E0,0E0,0E0,0E0,0E0,0E0,0E0,0E0,0E0,0E0,0E0,0E0,0E0,0E0,0E0,0E0,0E0,0E0,0E0,0E0,0E0,0E0,0E0,0E0,0E0,0E0,0E0,0E0,0E0,0E0,0E0,0E0,0E0,0E0,0E0,0E0,0E0,0E0,0E0,0E0,0E0,0E0,0E0,0E0,0E0,0E0,0E0,0E0,0E0],"parents":[2147483647,0,0,1,1,2,2,3,3,4,4,5,5,6,6,7,7,8,8,9,9,10,10,11,11,12,12,13,13,14,14,15,15,16,16,17,17,18,18,20,20,21,21,22,22,23,23,24,24,25,25,26,26,27,27,28,28,29,29,30,30,31,31,32,32,33,33,34,34,35,35,36,36,37,37,38,38,41,41,42,42,43,43,44,44,45,45,46,46,47,47,48,48,49,49,50,50,51,51,52,52,55,55,56,56,57,57,59,59,60,60,61,61,62,62,63,63,64,64,65,65,66,66,67,67,68,68,69,69,70,70,71,71,72,72,73,73,74,74,75,75,76,76,77,77,79,79,81,81,82,82,83,83,85,85,86,86,87,87,88,88,89,89,90,90,91,91,93,93,94,94,96,96,97,97,98,98,99,99,100,100,101,101,102,102,103,103,104,104,105,105,108,108],"right_children":[2,4,6,8,10,12,14,16,18,20,22,24,26,28,30,32,34,36,38,-1,40,42,44,46,48,50,52,54,56,58,60,62,64,66,68,70,72,74,76,-1,-1,78,80,82,84,86,88,90,92,94,96,98,100,-1,-1,102,104,106,-1,108,110,112,114,116,118,120,122,124,126,128,130,132,134,136,138,140,142,144,-1,146,-1,148,150,152,-1,154,156,158,160,162,164,166,-1,168,170,-1,172,174,176,178,180,182,184,186,188,190,-1,-1,192,-1,-1,-1,-1,-1,-1,-1,-1,-1,-1,-1,-1,-1,-1,-1,-1,-1,-1,-1,-1,-1,-1,-1,-1,-1,-1,-1,-1,-1,-1,-1,-1,-1,-1,-1,-1,-1,-1,-1,-1,-1,-1,-1,-1,-1,-1,-1,-1,-1,-1,-1,-1,-1,-1,-1,-1,-1,-1,-1,-1,-1,-1,-1,-1,-1,-1,-1,-1,-1,-1,-1,-1,-1,-1,-1,-1,-1,-1,-1,-1,-1,-1,-1,-1],"split_conditions":[-1.8365002E1,-1.0560493E0,-1.0557678E0,-4.7331614E0,8.167746E0,-8.633905E-2,-3.1945657E-2,-1.451782E1,-2.5477684E-1,-3.48795E2,-2.1268842E-1,-1.4535877E-1,-3.7527527E1,4.8252115E0,1.101821E1,-3.894456E-1,-2.0765463E-1,-2.7161047E0,-5.1879997E1,-5E-2,4.302279E1,-2.3955E1,4.791002E2,-2.7217686E1,-6.496858E-2,-2.7325455E-2,-1.6928806E1,-7.425E0,-7.464509E-2,1.85295E2,1.665522E-2,-3.485E1,-1.8120992E-1,-2.142E1,1.5614033E1,1.4574194E1,-2.8458922E0,-8.119972E0,-5.8006406E-1,-1.7594792E-1,-5E-2,1.3112062E1,-2.1643302E-1,-3.2523678E1,-1.8323842E-1,1.6764149E1,-1.585E0,-5.933775E0,-8.685471E-2,-7.298555E-2,-1.5195E1,1.5586701E1,-1.285E0,-1.8694738E-1,-1.9360997E-1,1.2361853E3,4.839905E0,2.7333772E-2,-0E0,-5.175E0,1.1018612E1,-5.1684998E1,-2.5974998E1,-2.0209184E-1,-2.38E1,1.5517609E1,1.5447149E1,-2.8210556E-2,-6.423751E0,-1.1872536E1,-5.0239998E1,-3.9995003E1,-1.8037406E-1,-7.034498E-2,-3.499304E0,1.4410616E1,-6.2037505E-2,1.1711935E1,-0E0,-2.3335E1,2.2222223E-2,-2.88484E-2,7.1759456E-1,5.386546E2,1E-1,-1.093E1,-2.845E0,-4.7644377E0,-4.57956E-1,-1.6353375E-1,-1.05540134E-1,-9.004051E0,1.818182E-2,1.5193823E1,-2.7378969E-2,-1.818182E-2,1.793567E-1,-5.8113284E-2,1.5614313E1,1.6884989E1,1.57907715E1,5.6025185E1,3.5201533E3,-2.9699998E0,8.658996E3,1.288085E5,-1.9885208E-1,-1.827197E-1,1.4221073E1,-5E-2,-1.965169E-1,-0E0,-1.6190477E-1,1E-1,-0E0,-1.2941177E-1,2.5E-2,-1.1578947E-1,-1.6444445E-1,-4.7852762E-2,5.4054055E-3,8.83721E-2,-8.695653E-3,-1.02152646E-1,-3.8297873E-2,-6.538462E-2,4.7272727E-2,-1.1724138E-1,1.0526316E-2,5.660377E-2,-2.0408165E-2,1.5916957E-2,7.102804E-2,9.36E-2,3.820225E-2,4.0000003E-2,-1.3333334E-1,-1.1764706E-2,7.350428E-2,-1.2941177E-1,-6.097561E-2,1.0714286E-2,-6.976744E-2,-1.7948718E-1,-1.3868614E-1,-4.864865E-2,-1.1910112E-1,-0E0,-1.20000005E-1,-1.7531429E-1,-5E-2,-0E0,-1.2941177E-1,-1.0344827E-1,-1.7288135E-1,-6.666667E-2,1E-1,-5.7664234E-2,8.988764E-3,-5.405405E-2,-1.16279066E-1,-1.2035661E-1,-9.022869E-2,1.6949153E-2,-1.4444445E-1,-1.6094276E-1,-1.0857143E-1,-1.4754099E-1,-6.666667E-2,-1.7250966E-1,-6.666667E-2,-1.9092205E-1,-1.0344827E-1,-1.5196079E-1,-1.7755291E-1,-5.6E-2,-1.5719064E-1,-1.4379393E-1,-8.196721E-2,-1.6929135E-1,-1.3282444E-1,-1.7561994E-1,-1.5512666E-1,2.2222223E-2,-1.2727273E-1,-1.20000005E-1,2.2222223E-2,-1.8627737E-1,-5E-2,-1.9712558E-1,-5E-2,-5E-2,-1.9328909E-1],"split_indices":[1,0,0,0,0,3,3,0,3,1,3,3,0,0,0,3,3,4,1,0,3,1,0,0,4,3,0,1,3,1,4,1,3,1,2,2,0,4,4,0,0,4,3,4,4,2,1,0,3,3,1,2,1,0,0,0,0,3,0,1,0,1,1,3,1,2,2,3,0,4,1,1,4,3,0,2,4,0,0,1,0,3,3,0,0,1,1,0,3,4,3,0,0,2,3,0,3,3,2,2,2,0,0,1,0,4,0,0,2,0,0,0,0,0,0,0,0,0,0,0,0,0,0,0,0,0,0,0,0,0,0,0,0,0,0,0,0,0,0,0,0,0,0,0,0,0,0,0,0,0,0,0,0,0,0,0,0,0,0,0,0,0,0,0,0,0,0,0,0,0,0,0,0,0,0,0,0,0,0,0,0,0,0,0,0,0,0,0,0,0,0,0,0],"split_type":[0,0,0,0,0,0,0,0,0,0,0,0,0,0,0,0,0,0,0,0,0,0,0,0,0,0,0,0,0,0,0,0,0,0,0,0,0,0,0,0,0,0,0,0,0,0,0,0,0,0,0,0,0,0,0,0,0,0,0,0,0,0,0,0,0,0,0,0,0,0,0,0,0,0,0,0,0,0,0,0,0,0,0,0,0,0,0,0,0,0,0,0,0,0,0,0,0,0,0,0,0,0,0,0,0,0,0,0,0,0,0,0,0,0,0,0,0,0,0,0,0,0,0,0,0,0,0,0,0,0,0,0,0,0,0,0,0,0,0,0,0,0,0,0,0,0,0,0,0,0,0,0,0,0,0,0,0,0,0,0,0,0,0,0,0,0,0,0,0,0,0,0,0,0,0,0,0,0,0,0,0,0,0,0,0,0,0,0,0,0,0,0,0],"sum_hessian":[1.4328225E5,1.976E3,1.4130625E5,8.7175E2,1.10425E3,4.83725E3,1.36469E5,4.0275E2,4.69E2,6.5375E2,4.505E2,6.785E2,4.15875E3,9.509E3,1.2696E5,9.65E1,3.0625E2,3.205E2,1.485E2,1E0,6.5275E2,2.1825E2,2.3225E2,2.7E2,4.085E2,2.6365E3,1.52225E3,6.162E3,3.347E3,8.956675E4,3.739325E4,1.275E1,8.375E1,1.31E2,1.7525E2,5.15E1,2.69E2,3.625E1,1.1225E2,6.5175E2,1E0,1.6525E2,5.3E1,2.27E2,5.25E0,3.1E1,2.39E2,3.0825E2,1.0025E2,3.4925E2,2.28725E3,7.9725E2,7.25E2,1.1865E3,4.9755E3,1.28925E3,2.05775E3,8.956525E4,1.5E0,1.0492E4,2.690125E4,9.25E0,3.5E0,4.425E1,3.95E1,1.165E2,1.45E1,1.375E2,3.775E1,1.475E1,3.675E1,1.2375E2,1.4525E2,4.75E0,3.15E1,4.75E1,6.475E1,1.6425E2,1E0,5.175E1,1.25E0,6.25E0,2.2075E2,4.25E0,1E0,2.725E1,3.75E0,1.795E2,5.95E1,2.865E2,2.175E1,9.85E1,1.75E0,2.375E1,3.255E2,1.75E0,2.2855E3,6.435E2,1.5375E2,4.4025E2,2.8475E2,1.284E3,5.25E0,2.75E0,2.055E3,2.397E4,6.559525E4,5.0825E2,9.98375E3,1E0,2.690025E4,5E0,4.25E0,2E0,1.5E0,3.725E1,7E0,1.8E1,2.15E1,8.05E1,3.6E1,9.75E0,4.75E0,1.2675E2,1.075E1,2.5E1,1.275E1,6.25E0,8.5E0,2.55E1,1.125E1,7.125E1,5.25E1,1.24E2,2.125E1,2.75E0,2E0,3.25E0,2.825E1,7.5E0,4E1,5.5E1,9.75E0,2.825E1,1.36E2,8.25E0,4.35E1,3.5E0,2.75E0,2.1775E2,3E0,1E0,3.25E0,1.35E1,1.375E1,2.75E0,1E0,1.36E2,4.35E1,1.75E1,4.2E1,1.6725E2,1.1925E2,1.375E1,8E0,7.325E1,2.525E1,1.425E1,9.5E0,3.2275E2,2.75E0,2.27925E3,6.25E0,1.01E2,5.425E2,5.25E0,1.485E2,4.26E2,1.425E1,2.53E2,3.175E1,1.07775E3,2.0625E2,3.5E0,1.75E0,1.5E0,1.25E0,2.054E3,1E0,2.3969E4,1E0,1E0,9.98275E3],"tree_param":{"num_deleted":"0","num_feature":"5","num_nodes":"193","size_leaf_vector":"0"}},{"base_weights":[-1.7677118E0,-8.843642E-1,-1.7800548E0,-1.0622065E-1,-1.5171047E0,-1.5111324E0,-1.7895612E0,-6.1705947E-1,3.1680125E-1,-1.6073533E0,-1.4329306E0,-8.506024E-1,-1.6194242E0,-1.7245871E0,-1.797E0,-1.0605152E0,-4.822356E-1,5.9997267E-1,-4.0114332E-2,-1.5517259E0,-1.7040813E0,-1.2956569E0,-1.5615906E0,-9.3721503E-1,-2.8232408E-1,-1.6926701E0,-1.4480007E0,-1.6463654E0,-1.7450377E0,-1.8049365E0,-1.7801186E0,-2.907626E-1,-1.1301425E0,-2.3203838E-1,-7.831317E-1,-6.801932E-1,6.1941135E-1,4.2468283E-1,-2.2464246E-1,-1.5651035E0,-6.2480533E-1,-1.3294696E0,-9.639989E-1,-1.5727601E0,2.8935699E-2,-1.2006258E0,-8.246895E-1,-5.434287E-2,-7.225176E-1,-1.5521059E0,-1.7248094E0,-1.3068945E0,-1.495973E0,-1.7170658E0,-1.5813696E0,-1.7633876E0,-1.690809E0,-1.80497E0,2.2222222E-1,-1.7554207E0,-1.7869769E0,-1.0501173E0,7.0180553E-1,-1.3559743E0,-8.8031054E-1,-6.39763E-1,-9.382396E-2,-9.2701954E-1,-3.0081418E-1,-3.3969507E-2,-9.920888E-1,8.005447E-1,4.494992E-1,1.15268186E-1,8.397422E-1,-5.2884746E-1,1.0944593E-2,-1.1248744E0,1.2604707E-1,-2.2003438E-1,-1.3429614E0,-5.9733117E-1,-1.360717E0,-1.5808369E0,-4.6279374E-1,-9.050654E-1,-1.3542341E0,-6.4343965E-1,-9.844657E-1,-9.7603554E-1,1.0312199E-1,-1.0783161E0,-1.4685711E-1,-1.6246978E0,-1.3863447E0,-3.212301E-1,-1.7258768E0,-1.3487204E0,-8.721812E-1,-6.564298E-1,-1.5049244E0,-1.7176929E0,-5.6444377E-1,-1.500922E0,-1.6545076E0,-1.6920893E0,-1.731202E-1,-1.8051735E0,-1.5862854E0,-1.1067182E0,-1.7558205E0,-1.5041168E-1,-1.4297374E0,1.1055818E0,-1.9368382E-1,-4.3123245E-1,-1.4152721E0,7.466207E-1,-9.780811E-1,6.9882905E-1,-7.2266215E-1,-1.5816857E0,-3.293383E-2,1.690535E-1,-9.740105E-1,-1.1458017E0,-5.4978E-2,-3.0817053E-1,8.4137326E-1,-8.897464E-3,6.1243963E-1,3.2890856E-1,-3.2990277E-1,-5.3858745E-1,9.6156E-1,-1.0550268E0,-2.3193543E-1,8.908007E-2,-1.2338215E0,-5.716144E-1,7.6744694E-1,-5.716144E-1,1.1760058E-1,-1.3477376E0,-3.3038947E-1,-7.5909525E-1,4.2335504E-1,-1.524241E0,-3.7587324E-1,-1.5879885E0,-6.222192E-1,-5.933751E-1,-1.2553811E-1,-1.1862026E0,-4.9143004E-1,-1.3976581E0,-7.183168E-1,-8.4851646E-1,-4.02014E-1,-9.0375096E-1,-1.4287313E0,3.2734516E-1,-1.3957613E0,-3.555525E-1,3.1117618E-1,2.653816E-1,-1.1879314E0,3.722662E-1,-6.4463836E-1,-1.0572464E0,-1.4538391E0,-1.6302037E0,-1.7431841E0,-1.3530109E0,-3.069763E-1,7.4439E-1,-9.644978E-1,6.388968E-1,-9.546151E-1,1.026569E-1,-1.5076832E0,-1.5232027E0,-1.185926E0,-1.6567698E0,-1.199778E-1,-1.5844471E0,-1.7113526E0,2.9889274E-1,-5.68498E-1,-1.793036E0,-1.8084439E0,-1.1272651E-1,-1.6067339E0,-1.2679261E0,-1.3036612E-1,-5.6033087E-1,-1.7559288E0],"categories":[],"categories_nodes":[],"categories_segments":[],"categories_sizes":[],"default_left":[1,1,1,1,1,1,1,1,1,1,1,1,1,1,1,1,1,1,1,1,0,1,1,1,1,1,1,1,1,1,1,1,1,1,1,1,1,1,1,0,1,1,1,1,0,1,1,1,1,1,1,1,1,1,1,0,1,1,0,1,0,1,1,1,1,1,1,1,1,0,0,1,1,1,1,1,1,0,1,1,1,1,1,1,1,1,1,1,1,1,1,1,1,0,1,0,1,1,1,1,1,0,0,1,1,1,1,1,1,1,1,0,0,0,0,0,0,0,0,0,0,0,0,0,0,0,0,0,0,0,0,0,0,0,0,0,0,0,0,0,0,0,0,0,0,0,0,0,0,0,0,0,0,0,0,0,0,0,0,0,0,0,0,0,0,0,0,0,0,0,0,0,0,0,0,0,0,0,0,0,0,0,0,0,0,0,0,0,0,0,0,0,0,0,0,0,0],"id":1,"left_children":[1,3,5,7,9,11,13,15,17,19,21,23,25,27,29,31,33,35,37,39,-1,41,43,45,47,49,51,53,55,57,59,61,63,65,67,69,71,73,75,-1,77,79,81,83,-1,85,87,89,91,93,95,97,99,101,103,-1,105,107,-1,109,-1,111,113,115,117,119,121,123,125,-1,-1,127,129,131,133,135,137,-1,139,141,143,145,147,149,151,153,155,157,159,161,163,165,167,-1,169,-1,171,173,175,177,179,-1,-1,181,183,185,187,189,191,193,195,-1,-1,-1,-1,-1,-1,-1,-1,-1,-1,-1,-1,-1,-1,-1,-1,-1,-1,-1,-1,-1,-1,-1,-1,-1,-1,-1,-1,-1,-1,-1,-1,-1,-1,-1,-1,-1,-1,-1,-1,-1,-1,-1,-1,-1,-1,-1,-1,-1,-1,-1,-1,-1,-1,-1,-1,-1,-1,-1,-1,-1,-1,-1,-1,-1,-1,-1,-1,-1,-1,-1,-1,-1,-1,-1,-1,-1,-1,-1,-1,-1,-1,-1,-1,-1,-1],"loss_changes":[1.5464688E3,9.64156E2,3.5528125E2,1.9023631E2,5.9016113E0,3.4105078E2,6.228125E1,2.3326462E1,4.8711056E1,1.1633301E-1,8.010132E0,3.3028107E1,4.9176758E1,1.9390625E1,1.30625E1,4.6087875E0,2.2974052E1,7.1072083E0,1.8454037E1,3.199707E0,0E0,1.8663635E0,5.168579E0,1.639447E1,9.08198E0,1.0311523E1,6.4240723E0,1.0620605E1,7.984375E0,5.96875E0,3.4453125E0,7.5113735E0,3.5531921E0,9.483993E0,9.383041E0,8.723426E-1,7.801506E0,7.759699E0,1.1033443E1,0E0,2.566493E0,3.478119E0,3.4942017E0,1.8356934E0,0E0,6.645111E0,1.1360168E1,8.947887E0,6.176697E0,4.305542E0,2.9370117E0,4.6779785E0,5.902832E0,2.6855469E-2,6.487793E0,0E0,5.166504E0,8.125E-1,0E0,2.5976562E-1,0E0,1.661017E0,1.8394942E0,1.7113571E0,7.5375443E0,5.243881E0,1.1512982E1,5.6629486E0,6.889741E0,0E0,0E0,6.0114365E0,1.0395624E1,3.5520527E0,4.878086E0,1.0250315E1,8.639348E0,0E0,1.9962499E0,5.687508E-1,7.5839233E-1,3.1562486E0,1.5913906E0,9.581909E-1,7.888633E-2,6.66206E0,2.0904694E0,9.408768E0,6.5342255E0,5.375187E0,5.165391E0,3.1075344E0,3.592146E0,0E0,2.301178E0,0E0,1.0146484E0,8.8916016E-1,5.3577385E0,5.0310793E0,4.1745605E0,0E0,0E0,3.3651123E0,2.5395508E0,3.109375E0,8.1976575E-1,6.25E-2,2.3776093E0,1.0849638E0,1.15234375E-1,0E0,0E0,0E0,0E0,0E0,0E0,0E0,0E0,0E0,0E0,0E0,0E0,0E0,0E0,0E0,0E0,0E0,0E0,0E0,0E0,0E0,0E0,0E0,0E0,0E0,0E0,0E0,0E0,0E0,0E0,0E0,0E0,0E0,0E0,0E0,0E0,0E0,0E0,0E0,0E0,0E0,0E0,0E0,0E0,0E0,0E0,0E0,0E0,0E0,0E0,0E0,0E0,0E0,0E0,0E0,0E0,0E0,0E0,0E0,0E0,0E0,0E0,0E0,0E0,0E0,0E0,0E0,0E0,0E0,0E0,0E0,0E0,0E0,0E0,0E0,0E0,0E0,0E0,0E0,0E0,0E0,0E0,0E0,0E0,0E0,0E0],"parents":[2147483647,0,0,1,1,2,2,3,3,4,4,5,5,6,6,7,7,8,8,9,9,10,10,11,11,12,12,13,13,14,14,15,15,16,16,17,17,18,18,19,19,21,21,22,22,23,23,24,24,25,25,26,26,27,27,28,28,29,29,30,30,31,31,32,32,33,33,34,34,35,35,36,36,37,37,38,38,40,40,41,41,42,42,43,43,45,45,46,46,47,47,48,48,49,49,50,50,51,51,52,52,53,53,54,54,56,56,57,57,59,59,61,61,62,62,63,63,64,64,65,65,66,66,67,67,68,68,71,71,72,72,73,73,74,74,75,75,76,76,78,78,79,79,80,80,81,81,82,82,83,83,84,84,85,85,86,86,87,87,88,88,89,89,90,90,91,91,92,92,94,94,96,96,97,97,98,98,99,99,100,100,103,103,104,104,105,105,106,106,107,107,108,108,109,109,110,110],"right_children":[2,4,6,8,10,12,14,16,18,20,22,24,26,28,30,32,34,36,38,40,-1,42,44,46,48,50,52,54,56,58,60,62,64,66,68,70,72,74,76,-1,78,80,82,84,-1,86,88,90,92,94,96,98,100,102,104,-1,106,108,-1,110,-1,112,114,116,118,120,122,124,126,-1,-1,128,130,132,134,136,138,-1,140,142,144,146,148,150,152,154,156,158,160,162,164,166,168,-1,170,-1,172,174,176,178,180,-1,-1,182,184,186,188,190,192,194,196,-1,-1,-1,-1,-1,-1,-1,-1,-1,-1,-1,-1,-1,-1,-1,-1,-1,-1,-1,-1,-1,-1,-1,-1,-1,-1,-1,-1,-1,-1,-1,-1,-1,-1,-1,-1,-1,-1,-1,-1,-1,-1,-1,-1,-1,-1,-1,-1,-1,-1,-1,-1,-1,-1,-1,-1,-1,-1,-1,-1,-1,-1,-1,-1,-1,-1,-1,-1,-1,-1,-1,-1,-1,-1,-1,-1,-1,-1,-1,-1,-1,-1,-1,-1,-1,-1],"split_conditions":[-1.8384998E1,-1.0570433E0,-1.0407678E0,-4.7339115E0,5.071386E0,-8.6274855E-2,-1.486003E-2,-1.4926912E1,-3.0557716E-1,-2.311E1,-2.1590053E-1,-4.75823E0,-2.9227627E1,-6.225E0,9.432832E0,-5.343E1,-1.8837959E-1,-2.2929058E0,-4.8095E1,-2.3295E1,-1.7040813E-1,-2.0904999E1,1.3340479E3,-1.5561855E1,-1.7650001E0,-2.571846E-2,-5.690409E-2,3.5681252E0,1.2807938E1,1.85295E2,1.2751216E-2,1.4989536E1,-2.485E1,1.4500021E1,1.5670183E1,-2.84362E1,-4.460337E-1,1.5279236E1,1.4711402E1,-1.5651035E-1,1.5076222E0,5.1730747E0,-2.714074E-1,-1.8435001E1,2.8935699E-3,-2.2161804E-1,-1.310329E-1,1.4331943E1,5.3E-1,1.5185574E1,-1.5305E1,-6.7246895E0,-1.5875E1,1.9606237E1,-9.664349E-2,-1.7633876E-1,1.0991886E4,7.311E1,2.2222223E-2,1.4221916E1,-1.7869769E-1,1.4502776E1,-2.5373606E1,1.4334491E1,-2.4045E1,-5.7795E1,-1.6431438E1,-4.3105E1,-9.731141E0,-3.3969507E-3,-9.9208884E-2,1.4249654E1,-1.0507016E0,-5.155295E-1,-3.8304915E0,-6.1982495E-1,1.699317E1,-1.12487435E-1,-2.2126427E-1,-4.9345E1,-2.169924E-1,-1.8785E1,-2.298057E-1,7.1759456E-1,-4.0018815E-1,-4.7545344E-1,-8.94531E-2,1.5021038E1,-2.6750237E-2,-3.0493784E-1,-7.36538E-1,1.4306773E1,-3.2865746E0,-1.6246979E-1,-5.454267E-2,-3.212301E-2,-1.255E0,-5.701729E-2,-6.635268E0,-4.0006395E-2,-2.9179558E1,-1.7176929E-1,-5.6444377E-2,1.0098959E2,-1.4951538E-2,-5.7699792E-2,1.5168583E1,2.4204213E-2,1.4245718E1,2.9410088E-2,9.43379E0,-1.5041168E-2,-1.4297375E-1,1.10558175E-1,-1.9368382E-2,-4.3123245E-2,-1.4152722E-1,7.4662074E-2,-9.7808115E-2,6.988291E-2,-7.226621E-2,-1.5816857E-1,-3.2933832E-3,1.690535E-2,-9.740105E-2,-1.1458017E-1,-5.4977997E-3,-3.0817052E-2,8.413733E-2,-8.897464E-4,6.1243962E-2,3.2890856E-2,-3.2990277E-2,-5.3858746E-2,9.6156E-2,-1.0550268E-1,-2.3193544E-2,8.908007E-3,-1.2338215E-1,-5.716144E-2,7.67447E-2,-5.716144E-2,1.1760059E-2,-1.3477376E-1,-3.3038948E-2,-7.5909525E-2,4.2335507E-2,-1.524241E-1,-3.7587326E-2,-1.5879886E-1,-6.2221922E-2,-5.9337508E-2,-1.2553811E-2,-1.1862027E-1,-4.9143005E-2,-1.3976581E-1,-7.183168E-2,-8.4851645E-2,-4.02014E-2,-9.0375096E-2,-1.4287314E-1,3.2734517E-2,-1.3957612E-1,-3.555525E-2,3.1117618E-2,2.6538162E-2,-1.18793145E-1,3.722662E-2,-6.446384E-2,-1.0572465E-1,-1.4538391E-1,-1.6302037E-1,-1.7431842E-1,-1.353011E-1,-3.0697629E-2,7.4439004E-2,-9.6449785E-2,6.388968E-2,-9.546151E-2,1.026569E-2,-1.5076832E-1,-1.5232027E-1,-1.185926E-1,-1.6567698E-1,-1.1997781E-2,-1.5844472E-1,-1.7113526E-1,2.9889274E-2,-5.6849804E-2,-1.793036E-1,-1.808444E-1,-1.1272651E-2,-1.606734E-1,-1.2679261E-1,-1.30366115E-2,-5.6033086E-2,-1.7559288E-1],"split_indices":[1,0,0,0,0,3,3,0,3,1,3,0,0,1,0,1,3,3,1,1,0,1,0,0,1,3,3,0,0,1,4,2,1,2,2,4,3,2,2,0,0,0,4,1,0,4,3,2,1,2,1,0,1,2,3,0,0,1,0,2,0,2,0,2,1,1,4,1,0,0,0,2,4,4,0,4,2,0,3,1,3,1,3,3,4,4,3,2,4,3,4,2,0,0,3,0,1,3,0,3,0,0,0,0,3,3,2,3,2,3,0,0,0,0,0,0,0,0,0,0,0,0,0,0,0,0,0,0,0,0,0,0,0,0,0,0,0,0,0,0,0,0,0,0,0,0,0,0,0,0,0,0,0,0,0,0,0,0,0,0,0,0,0,0,0,0,0,0,0,0,0,0,0,0,0,0,0,0,0,0,0,0,0,0,0,0,0,0,0,0,0,0,0,0,0,0,0],"split_type":[0,0,0,0,0,0,0,0,0,0,0,0,0,0,0,0,0,0,0,0,0,0,0,0,0,0,0,0,0,0,0,0,0,0,0,0,0,0,0,0,0,0,0,0,0,0,0,0,0,0,0,0,0,0,0,0,0,0,0,0,0,0,0,0,0,0,0,0,0,0,0,0,0,0,0,0,0,0,0,0,0,0,0,0,0,0,0,0,0,0,0,0,0,0,0,0,0,0,0,0,0,0,0,0,0,0,0,0,0,0,0,0,0,0,0,0,0,0,0,0,0,0,0,0,0,0,0,0,0,0,0,0,0,0,0,0,0,0,0,0,0,0,0,0,0,0,0,0,0,0,0,0,0,0,0,0,0,0,0,0,0,0,0,0,0,0,0,0,0,0,0,0,0,0,0,0,0,0,0,0,0,0,0,0,0,0,0,0,0,0,0,0,0,0,0,0,0],"sum_hessian":[1.4197938E5,1.9575491E3,1.4002183E5,8.784277E2,1.0791213E3,4.786205E3,1.3523562E5,3.9770395E2,4.8072372E2,5.120376E2,5.670838E2,6.7540454E2,4.110801E3,1.3916425E4,1.21319195E5,9.1122536E1,3.0658142E2,2.6767413E2,2.1304959E2,3.3590427E2,1.7613332E2,2.7971378E2,2.8737E2,5.855155E2,8.9889E1,2.8739453E3,1.2368555E3,2.9011802E3,1.1015245E4,8.245036E4,3.8868836E4,7.9880533E0,8.3134476E1,1.6836003E2,1.3822139E2,3.4952826E0,2.6417886E2,6.0175518E1,1.5287407E2,3.3044662E2,5.4576516E0,2.5110504E2,2.860875E1,2.8537708E2,1.9929091E0,1.7236247E2,4.1315305E2,5.9959003E1,2.9929996E1,5.4400085E2,2.3299443E3,3.2097592E2,9.158795E2,1.3774319E3,1.5237483E3,8.206731E3,2.808513E3,8.244911E4,1.25E0,8.503483E3,3.0365354E4,4.492857E0,3.4951963E0,4.133909E1,4.179539E1,4.170472E1,1.26655304E2,1.057511E2,3.24703E1,1.4987992E0,1.9964836E0,1.2607075E2,1.3810811E2,3.5207256E1,2.4968264E1,6.617713E1,8.669694E1,2.976901E0,2.4807508E0,3.224976E0,2.4788007E2,1.6169619E1,1.2439129E1,2.8289435E2,2.482741E0,6.1302074E1,1.11060394E2,1.9592413E2,2.1722891E2,7.990368E0,5.1968636E1,1.79577E1,1.1972296E1,3.722013E2,1.7179956E2,1.9998347E0,2.3279446E3,2.908858E2,3.0090109E1,1.0446499E1,9.05433E2,1.376193E3,1.2388285E0,7.3586237E2,7.87886E2,2.8060308E3,2.4821234E0,8.2365195E4,8.391781E1,6.943412E0,8.49654E3,1.7474918E0,2.7453651E0,2.247284E0,1.2479124E0,2.989558E0,3.834953E1,1.9931036E0,3.9802288E1,1.9988555E0,3.9705864E1,3.997582E0,1.2265772E2,4.24061E0,1.0151048E2,6.492717E0,2.5977581E1,4.2451186E0,1.2182563E2,3.646561E1,1.01642494E2,2.3966663E1,1.1240592E1,1.7497015E0,2.3218563E1,2.2950884E1,4.322625E1,8.244989E1,4.2470436E0,1.2403754E0,1.2403754E0,1.2403754E0,1.9846007E0,2.463869E2,1.4931521E0,1.4178776E1,1.9908433E0,1.019813E1,2.2409992E0,2.8014783E2,2.7465134E0,1.2423108E0,1.2404305E0,3.5384438E1,2.5917639E1,1.0284004E2,8.220356E0,1.0457729E2,9.134683E1,1.8639812E2,3.0830803E1,1.9999596E0,5.990408E0,1.5995703E1,3.5972935E1,1.24727E0,1.671043E1,5.9839435E0,5.988353E0,3.2073856E1,1.3972571E2,3.7119812E2,1.9567465E3,2.8939514E2,1.4906784E0,1.2439343E0,2.8846174E1,1.7409849E0,8.705514E0,1.489084E0,9.039439E2,6.8366864E2,5.2193726E1,7.8664667E2,1.2392865E0,4.3857028E2,2.3674604E3,1.2426482E0,1.239475E0,1.7598492E4,6.47667E4,1.237724E0,8.268009E1,5.7031198E0,1.2402922E0,1.2378927E0,8.495303E3],"tree_param":{"num_deleted":"0","num_feature":"5","num_nodes":"197","size_leaf_vector":"0"}},{"base_weights":[-1.6334963E0,-8.359322E-1,-1.6457449E0,-1.2678503E-1,-1.3939344E0,-1.4011549E0,-1.6543778E0,-5.6299984E-1,2.6248503E-1,-1.4818106E0,-1.3155106E0,-8.2532E-1,-1.4913723E0,-1.5817107E0,-1.6606463E0,-3.336825E-1,-8.263524E-1,4.5176405E-1,-1.6008766E-1,-1.3733202E-1,-1.4846193E0,-1.1931038E0,-1.413223E0,-6.2718236E-1,-1.0230752E0,-1.5751201E0,-1.3470807E0,-1.6095827E0,-1.5033237E0,-1.6683781E0,-1.6418815E0,-6.3949287E-1,-1.8545164E-1,-1.1838468E0,-7.134063E-1,-1.4571731E-2,5.3963906E-1,2.767051E-1,-3.615945E-1,-1.2816567E0,-1.5051334E0,-1.2066233E0,-1.2595892E-1,-1.4289552E0,-4.4223815E-1,-1.171546E0,-5.491027E-1,-9.5993876E-1,-1.3845099E0,-1.4075146E0,-1.600756E0,-1.3899662E0,-1.2165558E0,-1.5421485E0,-1.6202186E0,-1.4210986E0,-1.5578995E0,-1.6684185E0,3.8669583E-1,-1.61329E0,-1.6486878E0,-7.221878E-1,4.557946E-1,-5.4285437E-1,-1.7310949E-2,-1.4985963E0,-1.0293632E0,-8.7573344E-1,-1.9179921E-1,-4.1765493E-1,1.5887457E-1,6.528675E-1,6.160291E-2,-4.9246225E-1,4.8807466E-1,-9.185233E-1,-1.0493618E-1,-1.3476487E0,-1.9227903E-1,-8.127535E-1,-1.5111103E0,-1.216126E0,-7.7317483E-3,6.489834E-1,-1.0780363E0,-6.22748E-1,-1.4450567E0,4.8668087E-1,-7.8598607E-1,-1.4045733E0,-7.577893E-1,-6.7820066E-1,-2.5209796E-1,-9.8032886E-1,-1.6179359E-1,-1.4153215E0,-1.729491E-1,-9.2610496E-1,-1.4395427E0,-1.6026063E0,-7.8006387E-1,-1.4501467E0,-1.2582037E0,-1.1462419E0,-1.4285209E0,-1.5730306E0,-1.4625152E0,-1.4283521E0,-3.2734E-1,-1.5595E0,3.1791937E-1,-1.6572942E0,-1.6722769E0,-1.5297418E0,-1.6186744E0,-4.695969E-1,-1.6487212E0,1.03676416E-1,-8.2416075E-1,-3.6680442E-1,1.0470365E0,4.3301013E-1,-7.5439256E-1,-3.691675E-1,2.3082794E-1,-3.703713E-1,-1.1868018E0,-1.0112577E-1,-9.087741E-1,-4.3933654E-1,3.413425E-1,3.759986E-1,-7.403171E-1,3.5697716E-1,-2.530516E-1,4.677987E-1,8.2541007E-1,3.901401E-1,-4.050434E-1,-1.18061915E-1,-1.3480103E0,-2.219853E-2,7.781254E-1,-2.437683E-1,-1.124998E0,-3.857315E-1,9.839733E-2,-1.018929E0,5.6313854E-1,-1.3006961E0,7.885948E-2,-4.0791344E-2,-1.2211124E0,4.7703275E-1,-1.0361935E0,-1.3432475E0,-1.5524224E0,4.0988248E-2,-1.2731665E0,-1.4671941E0,-2.7470455E-1,-2.1488708E-1,-1.2162827E0,-4.198499E-1,-8.239767E-1,-1.2093472E-1,-1.1703469E0,-1.0342404E0,-5.98652E-1,4.3558815E-1,-8.7200284E-1,-1.4014033E0,-3.871839E-1,-1.4455991E0,-5.8858675E-1,-1.566338E0,-1.6367943E0,-1.0674275E0,1.6521654E-1,-1.3166815E0,-1.4905839E0,5.878687E-1,-1.2674993E0,-1.1754428E0,-5.7621527E-1,-4.2993154E-2,-1.4471502E0,-4.778497E-1,-1.5741487E0,-3.2076087E-2,-1.4679613E0,-1.4307033E0,2.1250464E-1,9.5350154E-2,-1.169218E0,-1.5616034E0,-5.287193E-1,-1.6573327E0,-5.289569E-1,-1.6725088E0,-1.4700462E0,-1.5337052E0,-3.267498E-1,-1.6188161E0,-4.7276092E-1],"categories":[],"categories_nodes":[],"categories_segments":[],"categories_sizes":[],"default_left":[1,1,1,1,1,1,1,1,1,1,1,1,1,1,1,1,1,1,1,0,1,1,1,1,1,1,1,1,1,1,1,1,1,1,1,1,1,1,1,1,1,1,1,1,1,1,1,1,1,1,1,1,1,1,0,1,1,1,0,1,1,1,1,1,1,0,1,1,1,1,1,1,1,1,1,1,1,0,1,1,0,1,0,0,0,1,1,0,1,1,1,1,1,1,1,0,0,1,1,1,1,1,1,1,1,1,1,1,1,1,0,1,1,1,1,0,0,0,0,0,0,0,0,0,0,0,0,0,0,0,0,0,0,0,0,0,0,0,0,0,0,0,0,0,0,0,0,0,0,0,0,0,0,0,0,0,0,0,0,0,0,0,0,0,0,0,0,0,0,0,0,0,0,0,0,0,0,0,0,0,0,0,0,0,0,0,0,0,0,0,0,0,0,0,0,0,0,0,0,0,0,0,0,0,0],"id":2,"left_children":[1,3,5,7,9,11,13,15,17,19,21,23,25,27,29,31,33,35,37,-1,39,41,43,45,47,49,51,53,55,57,59,61,63,65,67,69,71,73,75,77,79,81,83,85,87,89,91,93,95,97,99,101,103,105,-1,107,109,111,-1,113,115,117,119,121,123,-1,125,127,129,131,133,135,137,139,141,143,145,-1,147,149,-1,151,-1,-1,-1,153,155,-1,157,159,161,163,165,167,169,-1,-1,171,173,175,177,179,181,183,185,187,189,191,193,195,-1,197,199,201,203,-1,-1,-1,-1,-1,-1,-1,-1,-1,-1,-1,-1,-1,-1,-1,-1,-1,-1,-1,-1,-1,-1,-1,-1,-1,-1,-1,-1,-1,-1,-1,-1,-1,-1,-1,-1,-1,-1,-1,-1,-1,-1,-1,-1,-1,-1,-1,-1,-1,-1,-1,-1,-1,-1,-1,-1,-1,-1,-1,-1,-1,-1,-1,-1,-1,-1,-1,-1,-1,-1,-1,-1,-1,-1,-1,-1,-1,-1,-1,-1,-1,-1,-1,-1,-1,-1,-1,-1,-1,-1],"loss_changes":[1.351875E3,8.297435E2,2.8578125E2,1.571626E2,6.13916E0,2.4074121E2,5.740625E1,2.6076782E1,3.9209568E1,1.8560791E0,5.838135E0,2.4166382E1,4.6524414E1,2.0488281E1,1.484375E1,1.053097E1,7.329132E0,1.386718E1,1.3488221E1,0E0,3.3740234E-1,3.9695435E0,4.6292114E0,1.29088745E1,5.8657837E0,8.666016E0,6.623291E0,3.0390625E0,1.0195801E1,7.765625E0,4.2421875E0,7.2390823E0,9.584106E0,7.4681854E-1,1.3070084E1,3.883536E0,1.5364655E1,8.139463E0,1.484417E1,3.8171082E0,7.939453E-1,3.203186E0,4.1602817E0,3.4938354E0,2.5983863E0,2.7068863E0,1.0593063E1,4.2625275E0,1.4210587E0,3.9927368E0,2.0854492E0,6.9848633E0,3.956726E0,3.3740234E-1,0E0,8.375977E0,5.454834E0,9.375E-1,0E0,6.1328125E-1,3.4375E-1,6.0918045E0,3.2869377E0,1.0863464E1,9.654263E0,0E0,3.1685524E0,2.9526749E0,5.2161665E0,4.555279E0,3.2645054E0,6.958214E0,8.683099E0,3.3551471E0,5.732504E0,4.30163E0,4.1875463E0,0E0,3.324597E0,2.8632708E0,0E0,1.5897522E0,0E0,0E0,0E0,4.3069005E0,1.5337524E0,0E0,2.2469075E0,1.2844353E0,3.7870007E0,7.001274E0,1.0294179E1,4.82753E0,3.7590976E0,0E0,0E0,5.694845E0,8.09021E-1,1.5283203E-1,2.047914E0,2.118164E0,6.852234E0,4.098358E0,2.2462463E0,1.7797852E-1,2.3987427E0,4.574951E0,3.1863964E0,2.7526855E0,0E0,8.984375E-2,5E-1,1.5670776E0,2.8125E-1,0E0,0E0,0E0,0E0,0E0,0E0,0E0,0E0,0E0,0E0,0E0,0E0,0E0,0E0,0E0,0E0,0E0,0E0,0E0,0E0,0E0,0E0,0E0,0E0,0E0,0E0,0E0,0E0,0E0,0E0,0E0,0E0,0E0,0E0,0E0,0E0,0E0,0E0,0E0,0E0,0E0,0E0,0E0,0E0,0E0,0E0,0E0,0E0,0E0,0E0,0E0,0E0,0E0,0E0,0E0,0E0,0E0,0E0,0E0,0E0,0E0,0E0,0E0,0E0,0E0,0E0,0E0,0E0,0E0,0E0,0E0,0E0,0E0,0E0,0E0,0E0,0E0,0E0,0E0,0E0,0E0,0E0,0E0,0E0,0E0,0E0,0E0,0E0,0E0,0E0],"parents":[2147483647,0,0,1,1,2,2,3,3,4,4,5,5,6,6,7,7,8,8,9,9,10,10,11,11,12,12,13,13,14,14,15,15,16,16,17,17,18,18,20,20,21,21,22,22,23,23,24,24,25,25,26,26,27,27,28,28,29,29,30,30,31,31,32,32,33,33,34,34,35,35,36,36,37,37,38,38,39,39,40,40,41,41,42,42,43,43,44,44,45,45,46,46,47,47,48,48,49,49,50,50,51,51,52,52,53,53,55,55,56,56,57,57,59,59,60,60,61,61,62,62,63,63,64,64,66,66,67,67,68,68,69,69,70,70,71,71,72,72,73,73,74,74,75,75,76,76,78,78,79,79,81,81,85,85,86,86,88,88,89,89,90,90,91,91,92,92,93,93,94,94,97,97,98,98,99,99,100,100,101,101,102,102,103,103,104,104,105,105,106,106,107,107,108,108,109,109,111,111,112,112,113,113,114,114],"right_children":[2,4,6,8,10,12,14,16,18,20,22,24,26,28,30,32,34,36,38,-1,40,42,44,46,48,50,52,54,56,58,60,62,64,66,68,70,72,74,76,78,80,82,84,86,88,90,92,94,96,98,100,102,104,106,-1,108,110,112,-1,114,116,118,120,122,124,-1,126,128,130,132,134,136,138,140,142,144,146,-1,148,150,-1,152,-1,-1,-1,154,156,-1,158,160,162,164,166,168,170,-1,-1,172,174,176,178,180,182,184,186,188,190,192,194,196,-1,198,200,202,204,-1,-1,-1,-1,-1,-1,-1,-1,-1,-1,-1,-1,-1,-1,-1,-1,-1,-1,-1,-1,-1,-1,-1,-1,-1,-1,-1,-1,-1,-1,-1,-1,-1,-1,-1,-1,-1,-1,-1,-1,-1,-1,-1,-1,-1,-1,-1,-1,-1,-1,-1,-1,-1,-1,-1,-1,-1,-1,-1,-1,-1,-1,-1,-1,-1,-1,-1,-1,-1,-1,-1,-1,-1,-1,-1,-1,-1,-1,-1,-1,-1,-1,-1,-1,-1,-1,-1,-1,-1,-1],"split_conditions":[-1.7435001E1,-1.127825E0,-1.0445229E0,-4.775919E0,4.8783484E0,-8.6274855E-2,-2.5167022E-2,-1.8225443E-1,-2.5099415E-1,-3.52475E2,-2.1915649E-1,-1.297807E-1,-3.7527527E1,9.47377E0,1.1172434E1,-1.1520651E1,-1.4191515E1,-2.526349E0,-4.4315002E1,-1.3733203E-2,-5.834E1,3.7881808E0,4.791002E2,-2.7951365E1,-1.8430287E-2,-2.7324729E-2,1.5341707E1,-8.745E0,-6.0203694E-2,1.85295E2,7.7041853E-3,-1.861E1,1.4606926E1,-7.210606E-1,1.5582636E1,1.4574194E1,-2.2168459E-1,-4.116862E0,-8.5271287E-1,-5.964E1,1.4238958E1,-2.1977723E-1,-4.168005E-1,-3.4678078E1,5.232135E2,1.5454784E1,1.5526907E1,-3.3006926E0,-8.710083E-2,-7.298555E-2,1.793567E-1,-1.233762E1,4.139957E-2,3.8497472E0,-1.6202186E-1,1.2361853E3,1.0112828E4,2.7082484E-2,3.8669582E-2,-5.1949997E0,1.1172968E1,-5.26E1,1.561444E1,-3.9864998E1,-3.0345001E1,-1.4985964E-1,-3.8141134E-1,-4.4260002E1,-6.3473706E0,1.4293675E1,-4.687954E0,-2.8458922E0,-3.447243E-1,-4.4522364E-2,1.47809925E1,-6.9570575E0,-3.0220001E1,-1.3476488E-1,1.1108577E0,1.4230511E1,-1.5111104E-1,4.901603E0,-7.7317486E-4,6.489834E-2,-1.07803635E-1,-8.1825E1,-3.142411E-1,4.8668087E-2,1.51534E1,-1.3455257E-1,-1.088E1,-2.0248103E-1,1.7699596E1,-9.1140784E-2,-1.0326019E-1,-1.4153215E-1,-1.7294912E-2,-8.0222756E-2,-2.7378969E-2,2.6137538E-2,-5.0299797E1,-5.6076817E-2,-1.23014965E1,-2.8848858E0,1.535858E1,6.1442927E-3,3.8630476E0,-6.0256466E-2,3.5201533E3,1.098E1,3.1791937E-2,1.070675E5,7.385E1,-5.205E0,7.7005504E-3,-4.695969E-2,-1.6487212E-1,1.0367642E-2,-8.241608E-2,-3.668044E-2,1.0470366E-1,4.3301012E-2,-7.543926E-2,-3.691675E-2,2.3082795E-2,-3.703713E-2,-1.1868018E-1,-1.0112577E-2,-9.087741E-2,-4.3933656E-2,3.413425E-2,3.7599858E-2,-7.403171E-2,3.5697717E-2,-2.5305161E-2,4.677987E-2,8.254101E-2,3.9014008E-2,-4.050434E-2,-1.1806192E-2,-1.3480103E-1,-2.219853E-3,7.7812545E-2,-2.437683E-2,-1.12499796E-1,-3.857315E-2,9.839733E-3,-1.018929E-1,5.6313854E-2,-1.3006961E-1,7.885948E-3,-4.0791347E-3,-1.2211124E-1,4.7703277E-2,-1.0361935E-1,-1.3432476E-1,-1.5524225E-1,4.0988247E-3,-1.2731665E-1,-1.4671941E-1,-2.7470455E-2,-2.148871E-2,-1.2162828E-1,-4.198499E-2,-8.239767E-2,-1.2093472E-2,-1.1703469E-1,-1.03424035E-1,-5.9865203E-2,4.3558817E-2,-8.7200284E-2,-1.4014034E-1,-3.871839E-2,-1.445599E-1,-5.8858674E-2,-1.566338E-1,-1.6367944E-1,-1.06742755E-1,1.6521653E-2,-1.3166815E-1,-1.4905839E-1,5.878687E-2,-1.2674993E-1,-1.17544286E-1,-5.7621527E-2,-4.2993156E-3,-1.4471503E-1,-4.778497E-2,-1.5741487E-1,-3.2076088E-3,-1.4679614E-1,-1.4307033E-1,2.1250464E-2,9.535016E-3,-1.169218E-1,-1.5616034E-1,-5.287193E-2,-1.6573326E-1,-5.289569E-2,-1.6725089E-1,-1.4700462E-1,-1.5337053E-1,-3.267498E-2,-1.6188161E-1,-4.727609E-2],"split_indices":[1,0,0,0,0,3,3,3,3,1,3,3,0,0,0,0,0,4,1,0,1,4,0,0,4,3,2,1,3,1,4,1,2,4,2,2,4,4,4,1,2,3,3,4,0,2,2,0,3,3,3,0,4,0,0,0,0,3,0,1,0,1,2,1,1,0,4,1,0,2,4,0,3,3,2,4,1,0,0,2,0,0,0,0,0,1,4,0,2,3,1,3,2,3,3,0,0,3,3,4,0,3,0,0,2,0,0,3,0,1,0,4,1,1,4,0,0,0,0,0,0,0,0,0,0,0,0,0,0,0,0,0,0,0,0,0,0,0,0,0,0,0,0,0,0,0,0,0,0,0,0,0,0,0,0,0,0,0,0,0,0,0,0,0,0,0,0,0,0,0,0,0,0,0,0,0,0,0,0,0,0,0,0,0,0,0,0,0,0,0,0,0,0,0,0,0,0,0,0,0,0,0,0,0,0],"split_type":[0,0,0,0,0,0,0,0,0,0,0,0,0,0,0,0,0,0,0,0,0,0,0,0,0,0,0,0,0,0,0,0,0,0,0,0,0,0,0,0,0,0,0,0,0,0,0,0,0,0,0,0,0,0,0,0,0,0,0,0,0,0,0,0,0,0,0,0,0,0,0,0,0,0,0,0,0,0,0,0,0,0,0,0,0,0,0,0,0,0,0,0,0,0,0,0,0,0,0,0,0,0,0,0,0,0,0,0,0,0,0,0,0,0,0,0,0,0,0,0,0,0,0,0,0,0,0,0,0,0,0,0,0,0,0,0,0,0,0,0,0,0,0,0,0,0,0,0,0,0,0,0,0,0,0,0,0,0,0,0,0,0,0,0,0,0,0,0,0,0,0,0,0,0,0,0,0,0,0,0,0,0,0,0,0,0,0,0,0,0,0,0,0,0,0,0,0,0,0,0,0,0,0,0,0],"sum_hessian":[1.3852689E5,2.0963176E3,1.3643058E5,9.236753E2,1.1726423E3,4.656748E3,1.3177383E5,4.3536282E2,4.883125E2,5.445554E2,6.280869E2,6.321363E2,4.0246118E3,1.0484565E4,1.21289266E5,2.3393138E2,2.0143143E2,3.3720316E2,1.5110933E2,1.2392368E0,5.433162E2,2.8467618E2,3.4341077E2,3.1784665E2,3.1428967E2,2.540295E3,1.4843169E3,7.7200283E3,2.764537E3,8.583423E4,3.545504E4,7.528961E1,1.5864177E2,4.608445E1,1.5534698E2,5.35988E1,2.8360437E2,4.758638E1,1.0352296E2,5.5700893E1,4.876153E2,2.8098572E2,3.690472E0,3.374713E2,5.9394436E0,3.8114143E1,2.7973248E2,2.70665E2,4.362466E1,3.444196E2,2.1958752E3,1.1099725E3,3.7434436E2,1.0716277E3,6.648401E3,1.1136803E3,1.6508568E3,8.583273E4,1.4998149E0,6.8631343E3,2.8591904E4,7.032097E1,4.9686427E0,5.004234E1,1.0859943E2,1.2307705E1,3.3776745E1,1.17958664E2,3.738832E1,1.5701373E1,3.7897427E1,2.2899782E2,5.460654E1,9.9712925E0,3.7615086E1,3.184436E1,7.16786E1,5.229585E1,3.405042E0,5.3456154E0,4.8226968E2,2.787618E2,2.2238898E0,2.2099972E0,1.4804747E0,7.384886E0,3.3008643E2,1.4919367E0,4.447507E0,2.2850233E1,1.5263909E1,1.9408629E2,8.564621E1,2.6370004E2,6.9649634E0,4.237874E1,1.2459245E0,2.3350922E1,3.2106866E2,2.1899854E3,5.8898654E0,7.5509094E2,3.5488156E2,2.859091E2,8.843528E1,7.58662E2,3.129657E2,1.1060393E3,7.640947E0,1.649618E3,1.2388123E0,2.2214117E4,6.361861E4,4.3279007E2,6.4303438E3,1.2070165E0,2.8590697E4,7.7267137E0,6.2594254E1,2.236537E0,2.732106E0,8.728626E0,4.1313713E1,4.471153E1,6.38879E1,7.1599154E0,2.6616829E1,4.991777E0,1.1296688E2,2.5653408E1,1.1734912E1,4.4905777E0,1.1210795E1,2.5680576E1,1.2216849E1,1.12278915E2,1.1671891E2,3.214157E1,2.2464968E1,7.7275844E0,2.2437084E0,1.3967015E1,2.3648071E1,7.972151E0,2.387221E1,2.9728167E1,4.1950428E1,1.4593036E0,1.9457382E0,3.1583624E0,2.1872528E0,1.216446E0,2.7754538E2,1.9756863E0,5.409199E0,1.763623E2,1.5372412E2,1.9882972E0,2.4592097E0,2.1367434E1,1.4828001E0,7.6610904E0,7.602819E0,7.141017E1,1.2267611E2,7.593177E1,9.714439E0,2.2956456E2,3.413548E1,3.9929936E0,2.9719696E0,1.1557481E1,1.1793442E1,3.1810583E2,2.9628184E0,1.0853777E3,1.1046078E3,4.4176803E0,1.4721851E0,1.8338402E2,5.717069E2,1.4661589E0,3.5341537E2,2.7096616E2,1.4942927E1,1.217178E0,8.72181E1,1.2106352E0,7.5745135E2,1.213163E0,3.1175253E2,1.1045846E3,1.4546391E0,5.677253E0,1.9636943E0,1.6457448E3,3.8733664E0,2.2212889E4,1.2283181E0,6.353844E4,8.016872E1,4.3109488E2,1.6952009E0,6.4291357E3,1.208423E0],"tree_param":{"num_deleted":"0","num_feature":"5","num_nodes":"205","size_leaf_vector":"0"}},{"base_weights":[-1.527556E0,-7.79518E-1,-1.539746E0,-1.1766627E-1,-1.3027425E0,-1.3011848E0,-1.5482646E0,-5.075965E-1,2.4500181E-1,-1.3941416E0,-1.2262076E0,-8.0884075E-1,-1.3949821E0,-1.4750272E0,-1.5545647E0,-2.6396552E-1,-7.4901086E-1,4.359925E-1,3.7147598E-3,-1.3955717E0,-3.9730442E-1,-1.0886985E0,-1.3306649E0,-5.2027655E-1,-9.549367E-1,-1.4684579E0,-1.2587922E0,-1.5133637E0,-1.4131259E0,-1.5357782E0,-1.5622095E0,-4.3966806E-1,9.7069256E-2,-1.0277395E0,-6.539758E-1,3.495374E-1,6.791968E-1,4.6961185E-1,-1.7150742E-1,-1.3386823E0,-1.4647803E0,-1.1023178E0,-1.711325E-1,-1.3366185E0,2.3967509E-1,-6.478045E-1,-2.1161667E-1,-1.0287308E0,-7.614614E-1,-1.3905965E0,-1.506384E0,-1.2047846E0,-1.3618151E0,-1.4876812E0,-1.5326735E0,-1.3218868E0,-1.4537215E0,-1.5272517E0,-1.5538054E0,-1.5622395E0,2.521019E-1,-7.5503147E-1,-2.563561E-1,-8.2675576E-2,8.9810765E-1,-1.0622301E0,2.8150138E-1,-9.3655473E-1,-5.474206E-1,-2.8047869E-2,5.427919E-1,7.7800107E-1,-4.6843773E-1,-4.597869E-1,5.958628E-1,-5.2408326E-1,3.6720697E-2,-1.3492274E0,-5.955313E-1,-1.468355E0,-4.1398472E-1,-1.1177465E0,-3.5820207E-1,3.9546165E-1,-1.0171106E0,-1.3446479E0,-9.855281E-2,-8.0564755E-1,-2.6888138E-1,-5.1447295E-2,-8.6932427E-1,-9.669231E-1,-1.289699E0,-8.051538E-1,1.4533389E-1,-1.3927501E0,6.514548E-2,-1.5087115E0,-7.5154793E-1,-1.233556E0,-1.0180175E0,-1.4302188E0,-1.2151204E0,-1.488379E0,6.56587E-2,-1.3278406E0,-1.370047E-2,-1.4546001E0,6.7985386E-2,-1.5457289E0,-1.5157495E0,-1.553887E0,-4.4072917E-1,-1.5676249E0,-1.5522561E0,-1.1550987E-1,-9.2416877E-1,-2.7335357E-2,-7.1646297E-1,8.2322897E-4,-1.2376986E0,1.2347124E0,-2.5198123E-1,-6.136701E-1,-1.1824859E0,-3.3557746E-1,-1.0550376E0,-6.1858606E-1,3.8822135E-1,7.034111E-2,-9.292531E-1,6.1059505E-1,2.4505238E-1,2.155965E-1,1.0648253E0,-8.059757E-1,3.6029944E-1,1.834417E-2,-1.2253132E0,9.03992E-1,2.6047462E-1,-9.238416E-1,-3.087389E-1,1.8310688E-1,-7.4188846E-1,-7.763758E-1,-1.3572234E0,-9.28976E-1,-6.974565E-2,-2.3590161E-1,-1.1266834E0,6.2138605E-1,-7.0930773E-1,1.18575886E-1,5.1318675E-1,-1.3531474E0,-3.1609127E-1,3.83365E-1,-5.3485596E-1,-7.077755E-1,-1.3006535E0,5.9388137E-1,-3.6154202E-1,-1.1400046E0,5.087309E-2,-4.8530945E-1,-1.3329914E0,-9.803722E-1,2.4270377E-1,-1.3408798E0,1.0354045E-1,-9.61349E-1,-6.284382E-1,-8.467292E-1,6.853897E-1,-1.1997899E0,-1.4119987E0,-1.0513188E0,3.6870116E-1,-1.3056966E0,-1.1442045E0,-3.9379698E-1,-1.1426189E0,-1.3563464E0,-1.5592164E0,6.4134455E-1,-1.2431921E0,-1.5094486E0,-1.4274541E0,-1.3433241E0,-1.0830501E0,-9.5033574E-1,7.031604E-1,-3.944712E-1,-1.4549167E0,-1.5458381E0,-3.877168E-1,-1.044756E0,-1.5160953E0,-1.5677258E0,-1.1720474E0,-8.333566E-2,-1.5523235E0],"categories":[],"categories_nodes":[],"categories_segments":[],"categories_sizes":[],"default_left":[1,1,1,1,1,1,1,1,1,1,1,1,1,1,1,1,1,1,1,1,0,1,1,1,1,1,1,1,1,1,1,1,1,1,1,1,1,1,1,1,1,1,1,1,0,1,1,1,1,1,1,1,1,1,0,1,1,1,1,1,0,1,1,1,1,1,0,1,1,1,1,1,1,1,1,1,1,1,1,0,0,1,1,1,0,1,1,1,1,1,1,1,1,1,1,1,0,0,1,1,1,1,1,1,0,1,1,1,0,1,1,0,0,1,1,0,0,0,0,0,0,0,0,0,0,0,0,0,0,0,0,0,0,0,0,0,0,0,0,0,0,0,0,0,0,0,0,0,0,0,0,0,0,0,0,0,0,0,0,0,0,0,0,0,0,0,0,0,0,0,0,0,0,0,0,0,0,0,0,0,0,0,0,0,0,0,0,0,0,0,0,0,0,0,0,0,0,0,0,0,0,0,0],"id":3,"left_children":[1,3,5,7,9,11,13,15,17,19,21,23,25,27,29,31,33,35,37,39,-1,41,43,45,47,49,51,53,55,57,59,61,63,65,67,69,71,73,75,77,79,81,83,85,-1,87,89,91,93,95,97,99,101,103,-1,105,107,109,111,113,-1,115,117,119,121,123,-1,125,127,129,131,133,135,137,139,141,143,145,147,-1,-1,149,151,153,-1,155,157,159,161,163,165,167,169,171,173,175,-1,-1,177,179,181,183,185,187,-1,189,191,193,-1,195,197,-1,-1,199,201,-1,-1,-1,-1,-1,-1,-1,-1,-1,-1,-1,-1,-1,-1,-1,-1,-1,-1,-1,-1,-1,-1,-1,-1,-1,-1,-1,-1,-1,-1,-1,-1,-1,-1,-1,-1,-1,-1,-1,-1,-1,-1,-1,-1,-1,-1,-1,-1,-1,-1,-1,-1,-1,-1,-1,-1,-1,-1,-1,-1,-1,-1,-1,-1,-1,-1,-1,-1,-1,-1,-1,-1,-1,-1,-1,-1,-1,-1,-1,-1,-1,-1,-1,-1,-1,-1,-1,-1],"loss_changes":[1.215375E3,7.4138196E2,2.648125E2,1.3397664E2,6.6555176E0,2.0817725E2,5.61875E1,2.6648384E1,2.2628992E1,2.1203613E-1,8.018921E0,3.0180145E1,3.6233887E1,2.1734375E1,1.4375E1,1.4551606E1,5.386444E0,5.5258713E0,1.7875324E1,1.5148926E-1,0E0,3.435913E0,3.7804565E0,9.576714E0,6.0967407E0,5.1875E0,5.819092E0,7.939453E-1,1.23828125E1,2.8203125E0,4.90625E0,8.710909E0,1.097258E1,2.8461037E0,4.7058334E0,1.4921202E1,8.395248E0,7.2957363E0,1.1702404E1,1.5950928E0,2.614441E-1,2.8787231E0,3.0030158E0,3.5339355E0,0E0,1.0198837E1,7.712328E0,4.3337097E0,5.5410233E0,2.6639404E0,1.7583008E0,3.517212E0,2.8120117E0,3.0180664E0,0E0,9.330566E0,3.6586914E0,2.5429688E0,2.9296875E-1,2.03125E0,0E0,5.962181E0,1.0404337E1,6.0514603E0,5.713892E0,2.2501755E0,0E0,2.925045E0,8.780571E0,6.281666E0,2.5791054E0,1.0350098E1,2.0354433E0,2.848658E0,5.2542267E0,4.8070145E0,1.1645633E1,3.2507324E-1,9.998555E-1,0E0,0E0,1.93573E0,2.9423637E0,6.854254E-2,0E0,2.7752686E0,9.316492E-1,5.0109177E0,4.428528E0,6.771808E0,1.909503E0,4.85376E0,4.649521E0,3.0051193E0,4.405839E0,1.3499756E0,0E0,0E0,2.7561462E0,3.4368896E0,9.217285E0,7.781372E-1,8.658371E0,1.3022461E0,0E0,3.0737305E0,4.9979315E0,3.1933594E-1,0E0,5.1171875E-1,7.34375E-1,0E0,0E0,2.96875E-1,2.7578125E0,0E0,0E0,0E0,0E0,0E0,0E0,0E0,0E0,0E0,0E0,0E0,0E0,0E0,0E0,0E0,0E0,0E0,0E0,0E0,0E0,0E0,0E0,0E0,0E0,0E0,0E0,0E0,0E0,0E0,0E0,0E0,0E0,0E0,0E0,0E0,0E0,0E0,0E0,0E0,0E0,0E0,0E0,0E0,0E0,0E0,0E0,0E0,0E0,0E0,0E0,0E0,0E0,0E0,0E0,0E0,0E0,0E0,0E0,0E0,0E0,0E0,0E0,0E0,0E0,0E0,0E0,0E0,0E0,0E0,0E0,0E0,0E0,0E0,0E0,0E0,0E0,0E0,0E0,0E0,0E0,0E0,0E0,0E0,0E0,0E0,0E0,0E0,0E0],"parents":[2147483647,0,0,1,1,2,2,3,3,4,4,5,5,6,6,7,7,8,8,9,9,10,10,11,11,12,12,13,13,14,14,15,15,16,16,17,17,18,18,19,19,21,21,22,22,23,23,24,24,25,25,26,26,27,27,28,28,29,29,30,30,31,31,32,32,33,33,34,34,35,35,36,36,37,37,38,38,39,39,40,40,41,41,42,42,43,43,45,45,46,46,47,47,48,48,49,49,50,50,51,51,52,52,53,53,55,55,56,56,57,57,58,58,59,59,61,61,62,62,63,63,64,64,65,65,67,67,68,68,69,69,70,70,71,71,72,72,73,73,74,74,75,75,76,76,77,77,78,78,81,81,82,82,83,83,85,85,86,86,87,87,88,88,89,89,90,90,91,91,92,92,93,93,94,94,95,95,98,98,99,99,100,100,101,101,102,102,103,103,105,105,106,106,107,107,109,109,110,110,113,113,114,114],"right_children":[2,4,6,8,10,12,14,16,18,20,22,24,26,28,30,32,34,36,38,40,-1,42,44,46,48,50,52,54,56,58,60,62,64,66,68,70,72,74,76,78,80,82,84,86,-1,88,90,92,94,96,98,100,102,104,-1,106,108,110,112,114,-1,116,118,120,122,124,-1,126,128,130,132,134,136,138,140,142,144,146,148,-1,-1,150,152,154,-1,156,158,160,162,164,166,168,170,172,174,176,-1,-1,178,180,182,184,186,188,-1,190,192,194,-1,196,198,-1,-1,200,202,-1,-1,-1,-1,-1,-1,-1,-1,-1,-1,-1,-1,-1,-1,-1,-1,-1,-1,-1,-1,-1,-1,-1,-1,-1,-1,-1,-1,-1,-1,-1,-1,-1,-1,-1,-1,-1,-1,-1,-1,-1,-1,-1,-1,-1,-1,-1,-1,-1,-1,-1,-1,-1,-1,-1,-1,-1,-1,-1,-1,-1,-1,-1,-1,-1,-1,-1,-1,-1,-1,-1,-1,-1,-1,-1,-1,-1,-1,-1,-1,-1,-1,-1,-1,-1,-1,-1,-1],"split_conditions":[-1.6955E1,-1.0570433E0,-1.1138878E0,-4.775919E0,4.4557486E0,-7.553917E-2,-2.5176361E-2,-1.9077092E-1,-3.055301E-1,-1.6985E1,-2.2475232E-1,-1.4200127E-1,-3.7455254E1,4.508716E0,1.5732255E-2,-2.4314999E1,-7.473351E-1,-4.5934998E1,-4.8095E1,-2.311E1,-3.973044E-2,3.5683074E0,2.3810393E3,1.5623476E1,-9.595816E0,-1.3170057E-2,1.1279928E-5,-9.938541E-2,-7.488057E-2,7.431946E-2,1.67425E2,-9.900137E0,-5.4551783E0,-4.997422E0,-1.3491051E1,-2.6963232E0,-4.9249366E-2,-8.119972E0,1.4637058E1,-2.3295E1,7.847408E0,-2.294402E-1,-4.168005E-1,7.1759456E-1,2.396751E-2,-4.84603E0,1.7377956E1,-3.395433E-2,1.6596428E1,-1.3184062E-2,1.793567E-1,-7.245921E0,-1.0166226E1,-9.950969E-2,-1.5326735E-1,1.2361853E3,1.0112828E4,7.8926086E0,4.1791525E5,4.8632107E0,2.521019E-2,-4.7540686E-1,-2.3694362E-1,-3.118449E-2,-4.969189E0,1.4512112E1,2.815014E-2,-2.915E1,1.6637304E1,-4.87E1,-1.6212568E0,-6.9182134E-1,-3.5085E1,-6.744668E-2,-7.2906756E-1,-6.688851E-1,-1.0784981E-1,1.424398E1,-2.2126427E-1,-1.4683549E-1,-4.1398473E-2,4.5802774E0,-5.901127E-1,8.37312E0,-1.0171106E-1,-1.7015E1,1.3514366E0,1.5291674E1,-1.525E1,-4.2324705E0,-1.0414432E-1,-8.85E-1,-7.61299E-2,-1.4921328E-1,-1.2485001E1,-4.66E0,6.514548E-3,-1.5087114E-1,-5.0299797E1,1.491254E1,-8.205E0,-1.1494686E-3,-1.00060005E1,1.2261627E0,6.5658703E-3,1.320917E2,-1.4592294E-1,4.5125685E0,6.798539E-3,7.423808E-2,-1.4684999E1,-1.553887E-1,-4.407292E-2,9.386E1,4.8635483E0,-1.1550987E-2,-9.2416875E-2,-2.7335358E-3,-7.1646295E-2,8.23229E-5,-1.2376986E-1,1.2347124E-1,-2.5198122E-2,-6.1367013E-2,-1.182486E-1,-3.3557747E-2,-1.0550376E-1,-6.1858606E-2,3.8822137E-2,7.0341113E-3,-9.292531E-2,6.1059505E-2,2.4505239E-2,2.155965E-2,1.0648253E-1,-8.059757E-2,3.6029946E-2,1.834417E-3,-1.2253132E-1,9.03992E-2,2.6047463E-2,-9.238416E-2,-3.087389E-2,1.8310688E-2,-7.418885E-2,-7.7637576E-2,-1.3572234E-1,-9.28976E-2,-6.9745653E-3,-2.359016E-2,-1.12668335E-1,6.2138606E-2,-7.093077E-2,1.1857589E-2,5.1318675E-2,-1.3531475E-1,-3.160913E-2,3.83365E-2,-5.34856E-2,-7.077755E-2,-1.3006535E-1,5.938814E-2,-3.6154203E-2,-1.1400046E-1,5.087309E-3,-4.8530947E-2,-1.3329914E-1,-9.803722E-2,2.4270376E-2,-1.3408798E-1,1.0354045E-2,-9.61349E-2,-6.284382E-2,-8.467292E-2,6.853897E-2,-1.1997899E-1,-1.4119987E-1,-1.0513188E-1,3.687012E-2,-1.3056967E-1,-1.1442045E-1,-3.9379697E-2,-1.1426189E-1,-1.3563465E-1,-1.5592164E-1,6.4134456E-2,-1.2431921E-1,-1.5094487E-1,-1.4274542E-1,-1.343324E-1,-1.08305015E-1,-9.503358E-2,7.031604E-2,-3.944712E-2,-1.4549167E-1,-1.5458381E-1,-3.877168E-2,-1.0447561E-1,-1.5160953E-1,-1.5677258E-1,-1.1720474E-1,-8.333567E-3,-1.5523235E-1],"split_indices":[1,0,0,0,0,3,3,3,3,1,3,3,0,0,3,1,4,1,1,1,0,4,0,2,0,3,4,3,3,4,1,0,0,0,0,0,4,4,2,1,3,3,3,3,0,0,2,4,2,3,3,0,0,3,0,0,0,0,4,0,0,3,3,4,0,2,0,1,2,1,0,4,1,3,4,4,3,2,3,0,0,0,4,4,0,1,3,2,1,4,4,1,3,4,1,1,0,0,0,2,1,3,0,0,0,0,3,0,0,4,1,0,0,1,0,0,0,0,0,0,0,0,0,0,0,0,0,0,0,0,0,0,0,0,0,0,0,0,0,0,0,0,0,0,0,0,0,0,0,0,0,0,0,0,0,0,0,0,0,0,0,0,0,0,0,0,0,0,0,0,0,0,0,0,0,0,0,0,0,0,0,0,0,0,0,0,0,0,0,0,0,0,0,0,0,0,0,0,0,0,0,0,0],"split_type":[0,0,0,0,0,0,0,0,0,0,0,0,0,0,0,0,0,0,0,0,0,0,0,0,0,0,0,0,0,0,0,0,0,0,0,0,0,0,0,0,0,0,0,0,0,0,0,0,0,0,0,0,0,0,0,0,0,0,0,0,0,0,0,0,0,0,0,0,0,0,0,0,0,0,0,0,0,0,0,0,0,0,0,0,0,0,0,0,0,0,0,0,0,0,0,0,0,0,0,0,0,0,0,0,0,0,0,0,0,0,0,0,0,0,0,0,0,0,0,0,0,0,0,0,0,0,0,0,0,0,0,0,0,0,0,0,0,0,0,0,0,0,0,0,0,0,0,0,0,0,0,0,0,0,0,0,0,0,0,0,0,0,0,0,0,0,0,0,0,0,0,0,0,0,0,0,0,0,0,0,0,0,0,0,0,0,0,0,0,0,0,0,0,0,0,0,0,0,0,0,0,0,0],"sum_hessian":[1.3341517E5,2.1403274E3,1.3127484E5,9.455194E2,1.1948081E3,4.531325E3,1.26743516E5,4.5544186E2,4.9007755E2,5.366807E2,6.581274E2,7.2666547E2,3.8046597E3,1.0057817E4,1.16685695E5,2.2772218E2,2.2771968E2,2.730991E2,2.1697847E2,5.355124E2,1.1683165E0,2.8904572E2,3.6908167E2,2.4577643E2,4.80889E2,2.4649902E3,1.3396694E3,6.196664E3,3.8611533E3,3.380727E4,8.287843E4,1.5303015E2,7.469203E1,5.5405724E1,1.7231395E2,2.0327527E2,6.9823814E1,5.8842487E1,1.5813599E2,3.0507983E2,2.3043259E2,2.846198E2,4.425924E0,3.6783588E2,1.2457689E0,1.731414E2,7.263502E1,3.4498856E2,1.3590047E2,8.1974164E2,1.6452485E3,8.872448E2,4.524246E2,2.6929695E3,3.5036946E3,1.1992936E3,2.6618599E3,2.3009934E4,1.0797337E4,8.2877195E4,1.2336994E0,5.5107067E1,9.792308E1,6.1735912E1,1.2956119E1,5.4167408E1,1.2383157E0,4.505115E1,1.272628E2,6.910708E1,1.3416818E2,6.458548E1,5.2383337E0,6.721345E0,5.2121143E1,5.8153126E1,9.9982864E1,3.0000723E2,5.0725803E0,2.2925533E2,1.177249E0,2.783464E2,6.2734118E0,2.9695835E0,1.4563406E0,3.653802E2,2.4557042E0,1.2143193E2,5.1709476E1,5.927757E1,1.3357449E1,2.8273157E2,6.225699E1,1.2976027E2,6.1401978E0,8.1857385E2,1.1677641E0,1.6391956E3,6.0529985E0,7.639533E2,1.2329155E2,3.025813E2,1.4984329E2,2.691802E3,1.1674703E0,1.1938452E3,5.448396E0,2.6603682E3,1.4918244E0,8.777099E3,1.4232836E4,1.0796149E4,1.1880367E0,5.373457E4,2.9142623E4,1.1878071E1,4.3228996E1,6.608721E1,3.1835865E1,5.850571E1,3.2302017E0,9.965782E0,2.9903364E0,1.2742037E1,4.1425373E1,8.050273E0,3.700088E1,1.18582245E2,8.680561E0,6.3136143E1,5.9709334E0,1.0842596E2,2.5742228E1,2.2405153E1,4.218033E1,3.7417958E0,1.4965379E0,4.73808E0,1.9832647E0,2.6280895E1,2.5840246E1,1.9207283E1,3.8945843E1,8.480375E1,1.5179112E1,5.4803123E0,2.9452692E2,2.6347992E0,2.4377813E0,3.0674012E0,2.75279E2,1.4521374E0,4.8212743E0,1.4847424E0,1.4848411E0,3.620726E2,3.3075707E0,1.2245089E0,1.2311954E0,1.034147E2,1.8017227E1,4.4903784E0,4.7219097E1,4.2217765E0,5.5055794E1,8.425786E0,4.931663E0,2.7981006E2,2.921514E0,6.0087254E1,2.169734E0,6.652242E1,6.3237843E1,1.9641922E0,4.1760054E0,7.9993965E1,7.385799E2,4.823733E0,1.2292657E0,4.1515344E2,3.4879984E2,2.1207565E1,1.02083984E2,1.9972186E2,1.0285944E2,1.90661E0,1.4793669E2,1.9824393E3,7.093626E2,1.1186036E3,7.5241554E1,2.2209105E0,3.2274857E0,1.166693E0,2.6592014E3,8.775936E3,1.1624633E0,1.2659773E1,1.4220176E4,5.371791E4,1.6658432E1,1.3931832E0,2.9141229E4],"tree_param":{"num_deleted":"0","num_feature":"5","num_nodes":"203","size_leaf_vector":"0"}},{"base_weights":[-1.4429001E0,-6.777306E-1,-1.4542905E0,-7.721604E-2,-1.1970388E0,-1.210056E0,-1.4631884E0,-4.668587E-1,2.3909488E-1,-1.2945089E0,-1.1213305E0,-6.757006E-1,-1.3017138E0,-1.3997548E0,-1.4706321E0,-8.536498E-1,-3.478471E-1,4.0496713E-1,-1.228389E-1,-1.0449952E0,-1.3320073E0,-1.0243092E0,-1.2599616E0,-4.2537844E-1,-8.4355474E-1,-1.3686085E0,-1.1321613E0,-1.329287E0,-1.4178458E0,-1.4791207E0,-1.4537394E0,1.977095E-1,-8.8482684E-1,-6.973644E-2,-5.692857E-1,-1.791537E-1,4.5664462E-1,-3.9789528E-1,3.113745E-2,-1.0848303E0,-2.8732198E-1,-7.5090784E-1,-1.3369708E0,-9.103525E-1,-1.136442E0,-1.2693716E0,2.7407935E-1,-8.4731275E-1,-3.2502282E-1,-7.8622735E-1,-1.1906283E0,-1.1848848E0,-1.3981597E0,-1.0619141E0,-1.2133777E0,-1.3824683E0,-1.2667915E0,-1.4360312E0,-1.365365E0,-1.4791496E0,-5.168671E-2,-1.382507E0,-1.455954E0,-5.229484E-1,8.2792604E-1,-1.2264495E0,-7.6654273E-1,-1.4359344E0,-2.7637616E-2,-7.068888E-1,-1.07359126E-1,-7.432822E-1,1.07456975E-1,5.5037147E-1,3.3503763E-2,1.1759892E-1,-8.2634205E-1,-2.4797761E-1,2.1561864E-1,-7.3595613E-1,-1.1703815E0,5.912156E-1,-7.707721E-1,-1.1322744E-1,-1.1182873E0,-1.0865053E0,-7.0612854E-1,-1.1625109E0,-3.7376463E-1,-2.106404E-1,-1.2832558E0,-1.0985847E0,-1.8635048E-1,-2.1961592E-1,-6.593017E-1,-8.222308E-1,-2.3859334E-1,-7.323428E-1,-1.2789322E0,-1.2439617E0,-9.3032855E-1,-1.3999876E0,-7.2173864E-1,-1.1044825E0,-8.134969E-1,-1.238389E0,-8.7606025E-1,-1.3830421E0,-3.6157575E-1,5.945739E-1,-1.2697188E0,-1.4361552E0,-3.139435E-1,-1.259356E0,-1.3811675E0,-1.418658E0,-1.4799343E0,-1.4471899E0,-1.4671836E0,-5.2004685E-3,-1.298532E0,-5.627447E-1,-1.1382327E0,7.9299934E-2,-4.762368E-1,-1.1169429E0,-6.3527775E-1,2.8500947E-1,-3.9775658E-1,2.842755E-1,-1.1531575E0,5.209081E-1,-3.4732905E-1,5.2041507E-1,1.391565E0,-7.551178E-1,2.2502474E-1,-8.9470364E-2,8.256899E-1,-1.4357595E0,-6.790256E-1,5.179454E-2,-1.0885097E0,4.9905512E-1,-1.7945231E-1,-9.636747E-1,7.9577166E-1,-9.3878E-1,-1.3144164E0,-7.5993806E-1,-1.1355379E0,-1.2306516E0,-5.8287007E-1,-1.1879468E0,-3.4376818E-1,8.9222026E-1,-9.218587E-1,-8.1595397E-1,2.8314295E-1,-3.6870465E-1,-1.2982816E0,-1.1972195E0,-4.3931347E-1,3.9890882E-1,-1.1045685E0,-4.3036643E-1,8.901745E-2,3.20157E-1,-7.7650064E-1,-8.6195606E-1,-4.1625127E-1,8.4752955E-2,-1.2121328E0,-1.0207686E0,8.6091435E-1,-1.0438452E0,-1.3031043E0,5.234775E-1,-9.600777E-1,-1.3243217E0,-1.4200839E0,-9.5741266E-1,2.406151E-1,-7.0652366E-1,-1.1327804E0,2.423039E-1,-8.3953017E-1,-7.0255375E-1,-1.2471861E0,5.398158E-1,-9.364151E-1,-4.4921657E-1,-1.3836211E0,-1.1866426E0,-1.3535535E0,-1.2660348E0,3.665298E-1,-1.3820809E0,-2.9611585E-1,-1.25935E0,-1.4321389E0,-1.467997E0,-1.4830236E0,-1.4344875E0,-1.4607568E0,-3.1241006E-1,-1.4672465E0],"categories":[],"categories_nodes":[],"categories_segments":[],"categories_sizes":[],"default_left":[1,1,1,1,1,1,1,1,1,1,1,1,1,1,1,1,1,1,1,1,1,1,1,1,1,1,1,1,1,1,1,1,1,1,1,1,1,1,1,1,1,1,0,1,1,1,0,1,1,1,1,1,1,1,1,1,1,1,1,1,0,0,1,0,0,1,1,0,1,1,1,1,1,1,1,1,1,1,1,1,1,0,0,0,0,1,1,1,1,1,1,1,1,1,1,1,1,1,0,1,1,1,1,1,1,1,1,1,0,0,1,0,0,1,1,1,1,1,1,0,0,0,0,0,0,0,0,0,0,0,0,0,0,0,0,0,0,0,0,0,0,0,0,0,0,0,0,0,0,0,0,0,0,0,0,0,0,0,0,0,0,0,0,0,0,0,0,0,0,0,0,0,0,0,0,0,0,0,0,0,0,0,0,0,0,0,0,0,0,0,0,0,0,0,0,0,0,0,0,0,0,0,0,0,0,0,0],"id":4,"left_children":[1,3,5,7,9,11,13,15,17,19,21,23,25,27,29,31,33,35,37,39,41,43,45,47,49,51,53,55,57,59,61,63,65,67,69,71,73,75,77,79,81,83,-1,85,87,89,-1,91,93,95,97,99,101,103,105,107,109,111,113,115,-1,-1,117,-1,-1,119,121,-1,123,125,127,129,131,133,135,137,139,141,143,145,147,-1,-1,-1,-1,149,151,153,155,157,159,161,163,165,167,169,171,173,-1,175,177,179,181,183,185,187,189,191,-1,-1,193,-1,-1,195,197,199,201,203,205,-1,-1,-1,-1,-1,-1,-1,-1,-1,-1,-1,-1,-1,-1,-1,-1,-1,-1,-1,-1,-1,-1,-1,-1,-1,-1,-1,-1,-1,-1,-1,-1,-1,-1,-1,-1,-1,-1,-1,-1,-1,-1,-1,-1,-1,-1,-1,-1,-1,-1,-1,-1,-1,-1,-1,-1,-1,-1,-1,-1,-1,-1,-1,-1,-1,-1,-1,-1,-1,-1,-1,-1,-1,-1,-1,-1,-1,-1,-1,-1,-1,-1,-1,-1,-1,-1,-1,-1],"loss_changes":[1.11175E3,5.8448157E2,2.7159375E2,1.0738235E2,5.9658203E0,2.15979E2,5.5265625E1,1.7670296E1,2.8929338E1,2.6589355E0,6.4191895E0,2.6967682E1,4.1304688E1,1.4388672E1,1.34375E1,3.1626968E0,1.8445766E1,1.0046265E1,6.447589E0,1.5356369E0,7.116699E-2,3.3427734E0,3.691925E0,1.0863834E1,6.7896423E0,1.3027344E1,4.8431396E0,6.970703E0,7.7226562E0,2.890625E0,3.7265625E0,1.9964452E0,2.6444397E0,7.6786203E0,1.0537079E1,4.53412E0,1.2020412E1,1.2157198E1,5.11717E0,8.634491E-1,2.3319309E0,1.147373E0,0E0,5.5256195E0,2.9183197E0,3.1166992E0,0E0,8.086899E0,7.40061E0,6.432419E0,1.2122345E0,4.5768433E0,1.862793E0,5.2803345E0,3.0613403E0,3.239746E-1,7.3934326E0,5.9472656E-1,2.6669922E0,1.328125E0,0E0,0E0,1.3515625E0,0E0,0E0,1.8549385E0,4.5528526E0,0E0,6.331882E0,3.0628052E0,4.614281E0,4.289944E0,3.7801313E0,5.5363846E0,8.644666E0,3.8362262E0,1.713417E0,1.0033876E1,6.7793517E0,5.676066E0,2.576599E-1,0E0,0E0,0E0,0E0,6.1115265E-1,4.7046394E0,2.977539E0,5.7125583E0,1.4800881E0,2.643982E0,1.8130112E0,8.4779005E0,1.0725513E1,6.084326E0,4.722107E0,7.0746436E0,5.896147E0,0E0,2.267456E0,3.780426E0,1.6430664E0,2.1191459E0,4.7855225E0,2.6571617E0,1.2689819E0,3.6965122E0,1.381836E-1,0E0,0E0,6.868164E0,0E0,0E0,4.293213E0,1.8500977E0,2.3486328E-1,4.6875E-1,1.3320312E0,6.6015625E-1,0E0,0E0,0E0,0E0,0E0,0E0,0E0,0E0,0E0,0E0,0E0,0E0,0E0,0E0,0E0,0E0,0E0,0E0,0E0,0E0,0E0,0E0,0E0,0E0,0E0,0E0,0E0,0E0,0E0,0E0,0E0,0E0,0E0,0E0,0E0,0E0,0E0,0E0,0E0,0E0,0E0,0E0,0E0,0E0,0E0,0E0,0E0,0E0,0E0,0E0,0E0,0E0,0E0,0E0,0E0,0E0,0E0,0E0,0E0,0E0,0E0,0E0,0E0,0E0,0E0,0E0,0E0,0E0,0E0,0E0,0E0,0E0,0E0,0E0,0E0,0E0,0E0,0E0,0E0,0E0,0E0,0E0,0E0,0E0,0E0,0E0,0E0,0E0],"parents":[2147483647,0,0,1,1,2,2,3,3,4,4,5,5,6,6,7,7,8,8,9,9,10,10,11,11,12,12,13,13,14,14,15,15,16,16,17,17,18,18,19,19,20,20,21,21,22,22,23,23,24,24,25,25,26,26,27,27,28,28,29,29,30,30,31,31,32,32,33,33,34,34,35,35,36,36,37,37,38,38,39,39,40,40,41,41,43,43,44,44,45,45,47,47,48,48,49,49,50,50,51,51,52,52,53,53,54,54,55,55,56,56,57,57,58,58,59,59,62,62,65,65,66,66,68,68,69,69,70,70,71,71,72,72,73,73,74,74,75,75,76,76,77,77,78,78,79,79,80,80,85,85,86,86,87,87,88,88,89,89,90,90,91,91,92,92,93,93,94,94,95,95,96,96,97,97,99,99,100,100,101,101,102,102,103,103,104,104,105,105,106,106,107,107,110,110,113,113,114,114,115,115,116,116,117,117,118,118],"right_children":[2,4,6,8,10,12,14,16,18,20,22,24,26,28,30,32,34,36,38,40,42,44,46,48,50,52,54,56,58,60,62,64,66,68,70,72,74,76,78,80,82,84,-1,86,88,90,-1,92,94,96,98,100,102,104,106,108,110,112,114,116,-1,-1,118,-1,-1,120,122,-1,124,126,128,130,132,134,136,138,140,142,144,146,148,-1,-1,-1,-1,150,152,154,156,158,160,162,164,166,168,170,172,174,-1,176,178,180,182,184,186,188,190,192,-1,-1,194,-1,-1,196,198,200,202,204,206,-1,-1,-1,-1,-1,-1,-1,-1,-1,-1,-1,-1,-1,-1,-1,-1,-1,-1,-1,-1,-1,-1,-1,-1,-1,-1,-1,-1,-1,-1,-1,-1,-1,-1,-1,-1,-1,-1,-1,-1,-1,-1,-1,-1,-1,-1,-1,-1,-1,-1,-1,-1,-1,-1,-1,-1,-1,-1,-1,-1,-1,-1,-1,-1,-1,-1,-1,-1,-1,-1,-1,-1,-1,-1,-1,-1,-1,-1,-1,-1,-1,-1,-1,-1,-1,-1,-1,-1],"split_conditions":[-1.8384998E1,-1.105576E0,-1.0572971E0,-4.775919E0,3.9827194E0,-8.6068764E-2,-1.4281401E-2,-1.451782E1,-2.5477684E-1,-1.2153575E0,-1.7222098E-1,-1.4561422E-1,-2.6724224E1,-6.225E0,8.714558E0,1.4260757E1,-2.0765463E-1,-6.824129E0,-9.150979E-1,-1.2951236E0,1.4238958E1,-4.1632447E-1,2.251942E3,-1.4737936E1,-1.5489216E-2,-3.2652263E-2,-2.145E0,4.619791E0,1.2742637E1,1.81775E2,-2.0949998E0,1.4230545E1,-8.088675E1,-1.0049646E0,1.5667112E1,1.4620407E1,-2.2168459E-1,-4.4504997E1,1.4677027E1,1.445396E1,-9.658701E-1,-3.2536656E-1,-1.3369708E-1,-3.1805E1,-1.878E1,4.1735563E0,2.7407935E-2,1.5712233E1,-1.585E0,-5.933775E0,-1.3103583E-1,1.554117E1,1.793567E-1,-6.7237377E0,1.6139381E1,1.9626755E1,4.632332E0,-1.4289469E-2,-6.079651E-2,-4.745E0,-5.1686713E-3,-1.382507E-1,4.898668E-2,-5.229484E-2,8.27926E-2,-1.2633361E1,-1.9056332E1,-1.4359345E-1,-5.2294683E0,1.4325958E1,1.6167511E1,1.4311277E1,-5.2970064E-1,-2.608924E-1,1.4344132E1,1.6087729E1,-3.7065002E1,1.453973E1,-2.895087E-1,1.7324188E0,-4.3625E1,5.912156E-2,-7.707721E-2,-1.1322744E-2,-1.1182874E-1,1.4411881E1,-3.4751425E0,2.5466528E0,-2.674173E-1,-8.4641814E-1,-1.3313501E2,-1.5592524E-1,-1.2018097E-1,1.5235973E1,-9.267189E0,-4.92E0,-9.9573866E-2,-1.3337195E-1,-1.2789322E-1,-5.7543136E-2,1.5555474E1,-1.065E0,1.5751057E1,-2.487563E1,-6.647107E0,-7.771766E-2,-2.603191E1,-1.8345001E1,-3.6157575E-2,5.945739E-2,-9.2168525E-2,-1.4361553E-1,-3.139435E-2,2.3011E3,1.12388545E4,-2.018466E0,2.4211783E-2,1.6508665E-2,8.715535E0,-5.2004686E-4,-1.298532E-1,-5.627447E-2,-1.1382327E-1,7.929994E-3,-4.762368E-2,-1.1169429E-1,-6.352778E-2,2.8500948E-2,-3.977566E-2,2.842755E-2,-1.1531575E-1,5.2090812E-2,-3.4732904E-2,5.204151E-2,1.391565E-1,-7.5511776E-2,2.2502474E-2,-8.947036E-3,8.2568996E-2,-1.4357595E-1,-6.790256E-2,5.179454E-3,-1.0885097E-1,4.9905512E-2,-1.7945232E-2,-9.636747E-2,7.957717E-2,-9.3878E-2,-1.3144164E-1,-7.5993806E-2,-1.13553785E-1,-1.23065166E-1,-5.8287006E-2,-1.1879468E-1,-3.437682E-2,8.922203E-2,-9.218588E-2,-8.15954E-2,2.8314296E-2,-3.6870465E-2,-1.2982816E-1,-1.1972195E-1,-4.3931346E-2,3.989088E-2,-1.1045685E-1,-4.3036643E-2,8.901745E-3,3.20157E-2,-7.765006E-2,-8.619561E-2,-4.1625127E-2,8.475295E-3,-1.2121328E-1,-1.02076866E-1,8.609144E-2,-1.0438452E-1,-1.3031043E-1,5.234775E-2,-9.600777E-2,-1.3243218E-1,-1.420084E-1,-9.5741265E-2,2.406151E-2,-7.0652366E-2,-1.13278046E-1,2.4230389E-2,-8.3953016E-2,-7.025538E-2,-1.2471861E-1,5.398158E-2,-9.364151E-2,-4.492166E-2,-1.3836211E-1,-1.18664265E-1,-1.3535535E-1,-1.2660348E-1,3.665298E-2,-1.3820809E-1,-2.9611586E-2,-1.25935E-1,-1.432139E-1,-1.467997E-1,-1.4830236E-1,-1.4344876E-1,-1.4607568E-1,-3.1241005E-2,-1.4672466E-1],"split_indices":[1,0,0,0,0,3,3,0,3,3,3,3,0,1,0,2,3,4,4,3,2,4,0,0,4,3,1,0,0,1,1,2,0,3,2,2,4,1,2,2,4,3,0,1,1,0,0,2,1,0,3,2,3,0,2,2,0,3,3,1,0,0,4,0,0,4,0,0,0,2,2,2,3,3,2,2,1,2,4,0,1,0,0,0,0,2,4,4,4,4,1,3,4,2,0,1,3,3,0,3,2,1,2,0,0,3,0,1,0,0,3,0,0,0,0,4,3,3,0,0,0,0,0,0,0,0,0,0,0,0,0,0,0,0,0,0,0,0,0,0,0,0,0,0,0,0,0,0,0,0,0,0,0,0,0,0,0,0,0,0,0,0,0,0,0,0,0,0,0,0,0,0,0,0,0,0,0,0,0,0,0,0,0,0,0,0,0,0,0,0,0,0,0,0,0,0,0,0,0,0,0,0,0,0,0,0,0],"split_type":[0,0,0,0,0,0,0,0,0,0,0,0,0,0,0,0,0,0,0,0,0,0,0,0,0,0,0,0,0,0,0,0,0,0,0,0,0,0,0,0,0,0,0,0,0,0,0,0,0,0,0,0,0,0,0,0,0,0,0,0,0,0,0,0,0,0,0,0,0,0,0,0,0,0,0,0,0,0,0,0,0,0,0,0,0,0,0,0,0,0,0,0,0,0,0,0,0,0,0,0,0,0,0,0,0,0,0,0,0,0,0,0,0,0,0,0,0,0,0,0,0,0,0,0,0,0,0,0,0,0,0,0,0,0,0,0,0,0,0,0,0,0,0,0,0,0,0,0,0,0,0,0,0,0,0,0,0,0,0,0,0,0,0,0,0,0,0,0,0,0,0,0,0,0,0,0,0,0,0,0,0,0,0,0,0,0,0,0,0,0,0,0,0,0,0,0,0,0,0,0,0,0,0,0,0,0,0],"sum_hessian":[1.27669055E5,1.8735233E3,1.2579553E5,8.693631E2,1.0041603E3,4.426675E3,1.2136886E5,3.8931522E2,4.8004785E2,4.3195047E2,5.722098E2,6.493587E2,3.777316E3,1.2766185E4,1.0860267E5,9.0150566E1,2.9916464E2,3.2910294E2,1.5094495E2,6.020634E1,3.7174414E2,3.4155826E2,2.3065152E2,2.6206836E2,3.8729037E2,2.7035828E3,1.0737333E3,2.6231265E3,1.0143059E4,7.222339E4,3.6379277E4,2.4425018E0,8.770806E1,1.3319563E2,1.6596902E2,2.6548891E1,3.0255405E2,5.3604378E1,9.734056E1,5.6788845E1,3.4174948E0,4.4381275E0,3.67306E2,1.739239E2,1.6763434E2,2.2941676E2,1.2347529E0,4.8925087E1,2.1314326E2,3.3519095E2,5.2099434E1,3.8030023E2,2.3232825E3,5.8329443E2,4.9043887E2,1.4057595E3,1.2173668E3,7.5132446E3,2.6298137E3,7.22219E4,1.4972234E0,1.115767E3,3.526351E4,1.2188942E0,1.2236074E0,2.0148233E1,6.755983E1,2.9919434E0,1.3020369E2,1.2746749E2,3.850153E1,8.407423E0,1.8141468E1,2.4744386E2,5.511018E1,2.4659878E1,2.89445E1,3.8598255E1,5.8742306E1,1.3074432E1,4.3714413E1,1.1339475E0,2.2835472E0,2.100456E0,2.3376715E0,9.106012E1,8.2863785E1,1.6158691E2,6.047423E0,3.178931E0,2.2623784E2,3.4969105E1,1.3955981E1,1.6330568E2,4.9837578E1,3.1404315E2,2.1147793E1,9.918287E0,4.218115E1,3.05511E2,7.478923E1,2.3159546E3,7.327879E0,4.9502197E2,8.827244E1,4.540973E2,3.634158E1,1.4046152E3,1.1442924E0,1.5941055E0,1.2157727E3,7.512135E3,1.109656E0,3.5163184E2,2.278182E3,9.4815594E2,7.127374E4,1.9878957E4,1.5384555E4,1.1826974E0,1.8965536E1,4.5258537E1,2.230129E1,1.0580501E2,2.4398684E1,1.6780838E1,1.1068665E2,1.6383554E1,2.2117977E1,2.4847038E0,5.922719E0,9.4264145E0,8.715053E0,2.4049796E2,6.9459014E0,1.0193578E1,4.4916603E1,1.9756166E1,4.9037123E0,3.9321046E0,2.5012394E1,2.9142931E1,9.455323E0,3.405032E1,2.4691988E1,1.1705116E1,1.3693159E0,1.9644567E1,2.4069845E1,1.4041209E1,7.701891E1,1.4057622E1,6.880616E1,1.562808E2,5.3061185E0,1.6374317E0,4.4099913E0,1.1350523E0,2.0438786E0,4.0697217E0,2.2216812E2,2.97084E1,5.260704E0,8.868735E0,5.0872464E0,9.6806725E1,6.649896E1,5.1410356E0,4.469654E1,2.8502975E2,2.9013386E1,1.656044E1,4.587354E0,8.702247E0,1.21604E0,7.394799E1,2.31563E2,1.1669166E0,7.3622314E1,5.0005792E2,1.8158966E3,5.8904753E0,1.4374037E0,3.4586895E1,4.604351E2,1.9242792E0,8.634816E1,8.640827E0,4.4545645E2,1.1610156E0,3.518056E1,1.3515848E0,1.4032637E3,6.182616E2,5.9751117E2,3.5041376E2,1.2180847E0,2.2759922E3,2.1897097E0,8.134157E1,8.668144E2,1.4750969E4,5.652277E4,1.0321691E4,9.557266E3,1.108441E0,1.5383446E4],"tree_param":{"num_deleted":"0","num_feature":"5","num_nodes":"207","size_leaf_vector":"0"}},{"base_weights":[-1.3729665E0,-7.121495E-1,-1.385869E0,-1.400894E-1,-1.145957E0,-1.1523769E0,-1.394226E0,-4.4460332E-1,2.2153006E-1,-1.2325484E0,-1.072796E0,-7.7032024E-1,-1.258589E0,-1.3204446E0,-1.4008127E0,-3.2181588E-1,-7.09866E-1,2.85716E-1,-4.6064994E-1,-1.0348111E0,-1.26212E0,-9.150801E-1,-1.1680537E0,-4.6286514E-1,-8.868273E-1,-1.3178313E0,-1.1312653E0,-1.3571944E0,-1.2557302E0,-1.4090431E0,-1.3813299E0,-5.432687E-1,-2.076235E-1,-7.705606E-1,-3.5947403E-1,1.1272222E-1,5.0117564E-1,3.1313576E-2,-7.155463E-1,-6.5128475E-1,-1.1242162E0,-1.1522571E0,-1.3008261E0,-9.312604E-1,1.6851136E-1,1.7841199E-1,-1.1733321E0,-3.3244732E-1,-8.6264247E-1,-8.452165E-1,-1.1934828E0,-1.2700354E0,-1.3610654E0,-1.1791441E0,-1.0038375E0,-1.3068045E0,-1.3698542E0,-1.1559647E0,-1.2934328E0,-1.4090812E0,1.3047904E-1,-1.3531462E0,-1.389012E0,-8.048041E-1,-2.8098017E-1,-5.585884E-1,-2.3974614E-2,-7.8774405E-1,6.3328706E-2,3.1584924E-1,-7.2054565E-1,-1.7175423E-1,2.5997984E-1,5.271406E-1,-1.271482E0,-2.9643634E-1,9.083707E-1,-9.311665E-1,-1.1996639E-1,-1.0117929E0,2.651619E-1,-1.1489515E0,1.8302962E-1,-1.1756821E0,2.4739079E-1,-1.3031001E0,-2.610051E-1,-8.4636235E-1,-1.1618892E0,-6.751233E-1,8.9884365E-1,-2.3823927E-1,-1.1807368E0,-5.183751E-1,-5.337015E-2,-1.2341093E0,-6.485986E-1,-9.788953E-1,-7.252338E-1,-3.400081E-1,-1.2122532E0,-1.206078E0,-1.3029501E0,-1.3633043E0,1.07317105E-1,-1.1151639E0,-1.3053161E0,-7.8539383E-1,-1.0815495E0,-1.120709E0,-1.3172039E0,-1.1812603E0,-7.939672E-1,-1.2943348E0,1.3119411E-1,-1.3938249E0,-1.4128647E0,-1.2593583E0,-1.35841E0,-2.4551165E-1,-1.389051E0,-4.0310535E-1,-9.894633E-1,-9.600038E-2,-7.700704E-1,6.54928E-1,-6.184005E-1,-3.4677345E-1,1.2652202E-1,-1.0599077E0,-6.9232863E-1,6.397649E-1,-5.444916E-1,5.7294816E-1,-8.863172E-1,-1.2550908E0,-2.8681603E-1,-4.7180557E-1,1.55904E-1,-9.094923E-1,2.9297882E-1,1.003809E-1,6.265864E-1,-5.521305E-1,9.9595726E-1,8.9441426E-2,1.2159121E0,1.623186E-1,-1.0653484E0,1.1362582E0,-7.0812947E-1,-1.1874356E0,5.1453076E-2,1.1192229E0,-5.572717E-1,-2.8681684E-1,-1.1899555E0,6.699917E-1,-2.9264423E-1,-8.577407E-1,6.52752E-1,-1.2454928E0,-3.081437E-1,6.838203E-1,-8.378369E-1,-1.1843425E0,1.0264742E-2,-1.0010824E0,-2.6302415E-1,-1.4327441E0,4.0816233E-2,-1.419028E0,-3.2823208E-1,7.245003E-1,-7.280351E-1,1.5002368E-1,-9.8635435E-1,-7.5126886E-1,-5.315865E-3,-1.2149192E0,-9.1168866E-2,-1.3053179E0,-5.29249E-1,-2.846327E-1,-1.3649051E0,-1.1218431E0,4.8444828E-1,-5.2624065E-1,-1.3116493E0,2.937207E-2,-8.426859E-1,-6.7345804E-1,-1.1032374E0,-1.1441809E0,2.2231196E-1,-1.3192143E0,-7.2653025E-1,-1.1831127E0,4.5223013E-2,-1.0225399E0,-5.3700435E-1,-1.3055798E0,-1.2116129E0,2.2653767E-1,-1.393957E0,-1.4132981E0,-1.2807086E0,5.635606E-2,-1.2640787E0,-1.3585541E0,-2.512986E-1,-2.5646985E-1,-1.3890895E0],"categories":[],"categories_nodes":[],"categories_segments":[],"categories_sizes":[],"default_left":[1,1,1,1,1,1,1,1,1,1,1,1,1,1,1,1,1,1,1,1,1,1,1,1,1,1,1,1,1,1,1,1,1,1,1,1,1,1,1,1,1,1,1,1,1,0,1,1,1,1,1,1,1,1,1,1,0,1,1,1,0,1,1,1,1,1,1,1,1,1,1,1,1,1,0,1,1,1,1,1,1,0,0,1,1,0,0,1,1,0,0,1,1,1,1,1,1,1,1,0,0,1,1,1,0,1,1,1,1,1,1,1,1,1,0,1,1,1,1,0,1,0,0,0,0,0,0,0,0,0,0,0,0,0,0,0,0,0,0,0,0,0,0,0,0,0,0,0,0,0,0,0,0,0,0,0,0,0,0,0,0,0,0,0,0,0,0,0,0,0,0,0,0,0,0,0,0,0,0,0,0,0,0,0,0,0,0,0,0,0,0,0,0,0,0,0,0,0,0,0,0,0,0,0,0,0,0,0,0,0,0,0,0],"id":5,"left_children":[1,3,5,7,9,11,13,15,17,19,21,23,25,27,29,31,33,35,37,39,41,43,45,47,49,51,53,55,57,59,61,63,65,67,69,71,73,75,77,79,81,83,85,87,89,-1,91,93,95,97,99,101,103,105,107,109,-1,111,113,115,-1,117,119,121,123,125,127,129,131,133,135,137,139,141,-1,143,145,147,149,151,153,-1,-1,155,157,-1,-1,159,161,-1,-1,163,165,167,169,171,173,175,177,-1,-1,179,181,183,-1,185,187,189,191,193,195,197,199,201,-1,203,205,207,209,-1,211,-1,-1,-1,-1,-1,-1,-1,-1,-1,-1,-1,-1,-1,-1,-1,-1,-1,-1,-1,-1,-1,-1,-1,-1,-1,-1,-1,-1,-1,-1,-1,-1,-1,-1,-1,-1,-1,-1,-1,-1,-1,-1,-1,-1,-1,-1,-1,-1,-1,-1,-1,-1,-1,-1,-1,-1,-1,-1,-1,-1,-1,-1,-1,-1,-1,-1,-1,-1,-1,-1,-1,-1,-1,-1,-1,-1,-1,-1,-1,-1,-1,-1,-1,-1,-1,-1,-1,-1,-1,-1,-1,-1],"loss_changes":[1.031375E3,5.7581165E2,2.3014062E2,1.10448364E2,7.0389404E0,1.6579102E2,5.3890625E1,1.750116E1,2.0219305E1,2.1890259E0,9.794922E0,3.170343E1,2.2752441E1,2.0685547E1,1.49375E1,9.343163E0,3.3683853E0,1.5595642E1,5.0177975E0,2.1245193E0,6.92749E-1,5.0118713E0,3.3876953E0,1.2667423E1,7.273346E0,2.791504E0,5.0860596E0,2.0322266E0,1.1381348E1,4.515625E0,4.9023438E0,8.458195E0,1.5992493E1,2.1308823E0,6.855727E0,9.8559675E0,9.264473E0,4.452797E0,3.2634125E0,6.2571664E0,2.3504257E0,4.980438E0,5.4278564E-1,4.3616486E0,3.638661E0,0E0,2.803894E0,9.777664E0,4.0090675E0,8.511536E0,7.912903E-1,6.4697266E-1,3.8762207E0,4.5281982E0,4.029236E0,8.9404297E-1,0E0,7.745117E0,3.350586E0,2.3125E0,0E0,1.6191406E0,7.5E-1,4.2634583E0,5.783616E0,6.593466E0,8.014356E0,2.9633713E0,1.7000045E0,3.6496756E0,3.8172245E0,7.986584E0,6.2373886E0,7.7770653E0,0E0,4.3000937E0,9.5033336E-1,2.982479E0,6.8143764E0,2.5293865E0,4.774879E0,0E0,0E0,1.4457245E0,9.21943E-1,0E0,0E0,4.02623E0,4.667427E0,0E0,0E0,3.200975E0,1.9096069E0,1.3701731E1,1.0019668E1,3.052885E0,4.943228E0,2.4138794E0,5.747299E0,0E0,0E0,3.5512695E0,5.609131E-1,1.567627E0,0E0,5.871643E0,5.1138306E-1,3.715435E0,1.1096954E0,2.5091782E0,4.1235352E-1,2.0625E0,3.267765E0,7.1972656E-1,0E0,3.4746094E0,1.5625E0,2.3823853E0,6.748047E-1,0E0,7.1875E-1,0E0,0E0,0E0,0E0,0E0,0E0,0E0,0E0,0E0,0E0,0E0,0E0,0E0,0E0,0E0,0E0,0E0,0E0,0E0,0E0,0E0,0E0,0E0,0E0,0E0,0E0,0E0,0E0,0E0,0E0,0E0,0E0,0E0,0E0,0E0,0E0,0E0,0E0,0E0,0E0,0E0,0E0,0E0,0E0,0E0,0E0,0E0,0E0,0E0,0E0,0E0,0E0,0E0,0E0,0E0,0E0,0E0,0E0,0E0,0E0,0E0,0E0,0E0,0E0,0E0,0E0,0E0,0E0,0E0,0E0,0E0,0E0,0E0,0E0,0E0,0E0,0E0,0E0,0E0,0E0,0E0,0E0,0E0,0E0,0E0,0E0,0E0,0E0,0E0,0E0,0E0,0E0],"parents":[2147483647,0,0,1,1,2,2,3,3,4,4,5,5,6,6,7,7,8,8,9,9,10,10,11,11,12,12,13,13,14,14,15,15,16,16,17,17,18,18,19,19,20,20,21,21,22,22,23,23,24,24,25,25,26,26,27,27,28,28,29,29,30,30,31,31,32,32,33,33,34,34,35,35,36,36,37,37,38,38,39,39,40,40,41,41,42,42,43,43,44,44,46,46,47,47,48,48,49,49,50,50,51,51,52,52,53,53,54,54,55,55,57,57,58,58,59,59,61,61,62,62,63,63,64,64,65,65,66,66,67,67,68,68,69,69,70,70,71,71,72,72,73,73,75,75,76,76,77,77,78,78,79,79,80,80,83,83,84,84,87,87,88,88,91,91,92,92,93,93,94,94,95,95,96,96,97,97,98,98,101,101,102,102,103,103,105,105,106,106,107,107,108,108,109,109,110,110,111,111,112,112,113,113,115,115,116,116,117,117,118,118,120,120],"right_children":[2,4,6,8,10,12,14,16,18,20,22,24,26,28,30,32,34,36,38,40,42,44,46,48,50,52,54,56,58,60,62,64,66,68,70,72,74,76,78,80,82,84,86,88,90,-1,92,94,96,98,100,102,104,106,108,110,-1,112,114,116,-1,118,120,122,124,126,128,130,132,134,136,138,140,142,-1,144,146,148,150,152,154,-1,-1,156,158,-1,-1,160,162,-1,-1,164,166,168,170,172,174,176,178,-1,-1,180,182,184,-1,186,188,190,192,194,196,198,200,202,-1,204,206,208,210,-1,212,-1,-1,-1,-1,-1,-1,-1,-1,-1,-1,-1,-1,-1,-1,-1,-1,-1,-1,-1,-1,-1,-1,-1,-1,-1,-1,-1,-1,-1,-1,-1,-1,-1,-1,-1,-1,-1,-1,-1,-1,-1,-1,-1,-1,-1,-1,-1,-1,-1,-1,-1,-1,-1,-1,-1,-1,-1,-1,-1,-1,-1,-1,-1,-1,-1,-1,-1,-1,-1,-1,-1,-1,-1,-1,-1,-1,-1,-1,-1,-1,-1,-1,-1,-1,-1,-1,-1,-1,-1,-1,-1,-1],"split_conditions":[-1.5275E1,-1.0607529E0,-1.1140137E0,-4.5440063E0,4.4557486E0,-5.681345E-2,-2.3360452E-2,-1.4701639E-1,-1.10273816E-1,-1.0438838E0,-2.2475457E-1,-1.297807E-1,-3.7527527E1,5.2290463E0,1.0864281E1,-9.6372E0,-6.2119675E0,-2.6937594E0,-4.892E1,1.445396E1,-2.8175E1,-2.265608E-1,-8.7603296E2,-8.25E-1,3.5585538E-2,1.5428755E-2,-1.1187868E1,-6.3050003E0,-7.4640006E-2,1.85295E2,1.0511614E-2,-2.4585E1,1.4623244E1,1.3604413E-1,-5.7087264E0,1.4647073E1,-1.8365E1,-5.882E1,1.5660688E1,1.4364628E1,-1.0691211E0,-2.8279999E1,-1.5295E1,-2.3415688E-1,-2.1485E1,1.78412E-2,-1.21494995E2,1.5298832E1,1E-2,-1.6089222E1,-2.5226831E2,-1.691635E-2,2.1105586E-1,1.1279928E-5,-2.5516476E-2,1.4301647E1,-1.3698542E-1,1.4804309E2,1.0246693E4,1.9489143E-2,1.3047904E-2,-5.1949997E0,1.0864801E1,-3.6804533E-1,-1.5473244E-1,-5.904E1,-3.0325E1,-7.594409E-1,-2.5384998E1,-1.701E1,-1.1785245E-1,-4.5633975E-1,-4.1197906E1,-2.7309723E0,-1.271482E-1,1.1549032E-1,-7.027033E-1,-4.0428367E0,1.5863535E1,1.7324188E0,-2.0237477E0,-1.1489516E-1,1.8302962E-2,1.4244446E1,-1.6007262E-1,-1.3031001E-1,-2.610051E-2,-1.565E1,1.12888275E2,-6.7512326E-2,8.988436E-2,-3.0893738E1,-1.5295E1,-9.319147E0,-1.476E1,-1.684674E-1,4.354608E-3,-1.5014999E1,-3.0829768E0,-3.400081E-2,-1.2122532E-1,-1.7005231E-2,1.5169501E-2,-5.065E0,1.0731711E-2,-1.4190741E-4,1.4234749E1,-1.0479191E1,-8.465E0,1.4300125E1,3.8567524E0,-7.472673E-2,-1.487093E-1,1.0565099E2,1.3119412E-2,-1.48E1,5.504E1,-2.2863124E-2,1.05088E-2,-2.4551166E-2,-1.2405001E1,-4.0310536E-2,-9.894633E-2,-9.600039E-3,-7.700704E-2,6.54928E-2,-6.1840054E-2,-3.4677345E-2,1.26522025E-2,-1.0599077E-1,-6.9232866E-2,6.397649E-2,-5.444916E-2,5.7294816E-2,-8.863172E-2,-1.2550908E-1,-2.8681604E-2,-4.718056E-2,1.55903995E-2,-9.094923E-2,2.9297883E-2,1.003809E-2,6.265864E-2,-5.5213053E-2,9.9595726E-2,8.944143E-3,1.2159121E-1,1.6231861E-2,-1.0653484E-1,1.13625824E-1,-7.081295E-2,-1.1874356E-1,5.1453076E-3,1.1192229E-1,-5.5727173E-2,-2.8681684E-2,-1.1899555E-1,6.699917E-2,-2.9264424E-2,-8.577407E-2,6.52752E-2,-1.24549285E-1,-3.081437E-2,6.838203E-2,-8.378369E-2,-1.1843425E-1,1.0264743E-3,-1.0010824E-1,-2.6302416E-2,-1.4327441E-1,4.081623E-3,-1.419028E-1,-3.282321E-2,7.2450034E-2,-7.280351E-2,1.5002369E-2,-9.8635435E-2,-7.512689E-2,-5.315865E-4,-1.21491924E-1,-9.116887E-3,-1.3053179E-1,-5.29249E-2,-2.8463272E-2,-1.3649051E-1,-1.1218431E-1,4.844483E-2,-5.2624065E-2,-1.3116494E-1,2.937207E-3,-8.426859E-2,-6.7345805E-2,-1.1032374E-1,-1.1441809E-1,2.2231197E-2,-1.3192144E-1,-7.2653025E-2,-1.1831128E-1,4.5223013E-3,-1.0225399E-1,-5.3700436E-2,-1.3055798E-1,-1.211613E-1,2.2653768E-2,-1.393957E-1,-1.4132981E-1,-1.2807086E-1,5.635606E-3,-1.2640788E-1,-1.3585542E-1,-2.512986E-2,-2.5646985E-2,-1.3890895E-1],"split_indices":[1,0,0,0,0,3,3,3,3,3,3,3,0,0,0,0,0,0,1,2,1,3,4,1,4,4,0,1,3,1,4,1,2,3,0,2,1,1,2,2,3,1,1,4,1,0,1,2,1,0,0,3,3,4,3,2,0,0,0,3,0,1,0,3,4,1,1,4,1,1,3,4,4,4,0,3,4,0,2,0,3,0,0,2,3,0,0,1,0,0,0,4,1,0,1,3,4,1,0,0,0,3,4,1,0,4,2,0,1,2,4,3,4,0,0,1,1,3,4,0,1,0,0,0,0,0,0,0,0,0,0,0,0,0,0,0,0,0,0,0,0,0,0,0,0,0,0,0,0,0,0,0,0,0,0,0,0,0,0,0,0,0,0,0,0,0,0,0,0,0,0,0,0,0,0,0,0,0,0,0,0,0,0,0,0,0,0,0,0,0,0,0,0,0,0,0,0,0,0,0,0,0,0,0,0,0,0,0,0,0,0,0,0],"split_type":[0,0,0,0,0,0,0,0,0,0,0,0,0,0,0,0,0,0,0,0,0,0,0,0,0,0,0,0,0,0,0,0,0,0,0,0,0,0,0,0,0,0,0,0,0,0,0,0,0,0,0,0,0,0,0,0,0,0,0,0,0,0,0,0,0,0,0,0,0,0,0,0,0,0,0,0,0,0,0,0,0,0,0,0,0,0,0,0,0,0,0,0,0,0,0,0,0,0,0,0,0,0,0,0,0,0,0,0,0,0,0,0,0,0,0,0,0,0,0,0,0,0,0,0,0,0,0,0,0,0,0,0,0,0,0,0,0,0,0,0,0,0,0,0,0,0,0,0,0,0,0,0,0,0,0,0,0,0,0,0,0,0,0,0,0,0,0,0,0,0,0,0,0,0,0,0,0,0,0,0,0,0,0,0,0,0,0,0,0,0,0,0,0,0,0,0,0,0,0,0,0,0,0,0,0,0,0,0,0,0,0,0,0],"sum_hessian":[1.2108187E5,2.3199336E3,1.1876194E5,1.00110425E3,1.3188292E3,4.108538E3,1.146534E5,5.433383E2,4.5776593E2,5.967199E2,7.221094E2,8.9551764E2,3.2130205E3,9.413252E3,1.0524015E5,3.729272E2,1.704111E2,4.189302E2,3.8835735E1,8.231251E1,5.144074E2,2.7590555E2,4.462038E2,2.474596E2,6.4805804E2,2.1863748E3,1.0266458E3,5.9910845E3,3.4221672E3,7.393536E4,3.1304785E4,1.25598015E2,2.4732918E2,1.4422876E2,2.6182339E1,2.3320876E2,1.8572145E2,1.3553642E1,2.5282095E1,1.7126883E1,6.518563E1,1.4203265E2,3.7237476E2,2.7198483E2,3.9207351E0,1.614286E0,4.445895E2,1.8797032E2,5.948926E1,5.7393567E2,7.412242E1,1.05283E3,1.1335448E3,7.402544E2,2.8639142E2,1.2238766E3,4.767208E3,9.47265E2,2.474902E3,7.393362E4,1.7471373E0,6.743096E3,2.4561688E4,6.185361E1,6.3744408E1,8.426044E1,1.6306874E2,1.4137096E2,2.8578057E0,9.16535E0,1.7016989E1,7.948705E1,1.5372171E2,1.8373285E2,1.9885954E0,1.0348495E1,3.2051477E0,1.8148323E1,7.133772E0,1.2216977E1,4.909906E0,6.409395E1,1.0916786E0,1.3985205E2,2.1805985E0,3.713095E2,1.0652318E0,2.0221582E2,6.9769E1,1.8543264E0,2.0664086E0,3.7535052E0,4.4083603E2,1.1229758E2,7.567275E1,2.0005184E1,3.948408E1,2.680873E2,3.0584833E2,2.0064158E0,7.2116005E1,3.7051553E2,6.8231445E2,1.1318905E3,1.6543139E0,4.9771048E2,2.4254388E2,7.806427E1,2.0832713E2,7.052872E1,1.1533479E3,8.8328E2,6.398501E1,2.4734277E3,1.4743547E0,1.4765306E4,5.916831E4,3.7110928E2,6.371987E3,1.0514568E0,2.4560637E4,2.0481693E1,4.1371918E1,4.7119522E1,1.6624886E1,3.4905984E0,8.076984E1,5.143726E1,1.11631485E2,3.4072887E1,1.0729807E2,1.4397959E0,1.4180099E0,7.981752E0,1.1835977E0,6.774327E0,1.0242661E1,4.126182E1,3.822523E1,3.4896193E0,1.5023209E2,3.510279E1,1.4863007E2,9.117435E0,1.2310585E0,1.2274609E0,1.9776868E0,1.9606614E0,1.6187662E1,1.9777436E0,5.1560283E0,1.038468E1,1.8322973E0,2.2316103E0,2.6782956E0,2.5436373E0,1.3730841E2,1.0883067E0,1.092292E0,2.0111717E2,1.0986538E0,6.312826E1,6.6407366E0,1.4236913E0,2.329814E0,4.3951102E2,1.3250113E0,3.7841946E1,7.445563E1,3.9284341E0,7.1744316E1,1.6143337E1,3.8618455E0,1.7152166E0,3.7768864E1,1.6342411E0,2.6645306E2,2.9513168E2,1.0716664E1,3.675115E2,3.0040162E0,6.795477E2,2.7667363E0,1.9423527E0,1.1299481E3,4.959384E2,1.7721142E0,2.633835E0,2.3991005E2,5.1606417E0,7.290363E1,1.21302595E1,1.9619687E2,6.9462776E1,1.0659429E0,1.1482064E3,5.1414747E0,8.8198334E2,1.2967026E0,3.22864E1,3.1698608E1,2.1644194E3,3.090085E2,1.062738E0,1.4764242E4,5.896524E4,2.0307207E2,1.287586E0,3.698217E2,6.37093E3,1.0566773E0,1.061119E0,2.4559576E4],"tree_param":{"num_deleted":"0","num_feature":"5","num_nodes":"213","size_leaf_vector":"0"}},{"base_weights":[-1.3134321E0,-5.98366E-1,-1.3256991E0,-6.804215E-2,-1.0632823E0,-1.0706004E0,-1.3352306E0,-3.5386494E-1,3.042258E-1,-1.0001204E0,-1.16808E0,-6.123509E-1,-1.1644733E0,-1.2540603E0,-1.3425629E0,-1.0028757E-1,-4.685833E-1,3.9700156E-1,-2.5207326E-1,-1.0817193E0,-8.2651037E-1,-1.1738546E0,2.1038587E-1,-6.741042E-1,-1.9356234E-1,-1.2488143E0,-1.0157799E0,-1.299107E0,-1.1965039E0,-1.3519171E0,-1.3212017E0,-2.9249853E-1,2.3809633E-1,-5.985072E-1,-2.616636E-1,4.6657893E-1,5.7492595E-2,-5.21143E-1,4.5015696E-1,-1.0855075E0,2.5957656E-1,-1.7457357E-1,-8.430241E-1,-5.2754444E-1,-1.1817809E0,-9.438304E-1,-6.0612136E-1,1.2279948E-2,-6.554416E-1,-1.1431363E0,-1.2852525E0,-1.0813229E0,-9.162655E-1,-1.2673764E0,-1.3206687E0,-1.118903E0,-1.2343246E0,-1.351959E0,3.4410796E-1,-1.2882361E0,-1.3297167E0,-1.2957387E-1,-7.370929E-1,3.722836E-1,-5.798877E-1,-9.418654E-1,-4.788831E-1,-6.4551055E-1,-9.996317E-2,2.1210751E-1,5.711266E-1,3.5485914E-1,-3.1523985E-1,-1.2748905E-1,-8.743986E-1,1.4056952E0,1.968054E-1,-1.0299146E0,-1.1753262E0,-6.121203E-1,8.7177926E-1,-7.8134847E-1,-1.0652434E0,-8.3562255E-1,3.4397972E-1,-1.1854367E0,-2.7499074E-1,-9.9147624E-1,2.6782557E-1,-4.697913E-1,-6.9025147E-1,1.2785056E0,-5.9866484E-2,-9.293393E-1,-2.6768938E-1,-8.6899954E-1,-1.1635511E0,-1.8062055E-1,-1.2862499E0,-9.845652E-1,-1.193813E0,-8.313624E-1,-1.0446633E0,-1.267802E0,-2.0177561E-1,-1.1217E0,1.0190632E0,-1.2631584E0,-1.200199E0,-1.3328689E0,-1.3549843E0,-1.2885333E0,-7.769066E-2,-2.8996155E-1,-1.3297561E0,-1.135442E0,-7.021708E-2,3.4521496E-1,-8.3588E-1,-5.0708914E-1,4.773689E-1,2.4636957E-1,-1.0522197E0,1.3748972E-1,-1.0371763E0,-5.3054774E-1,1.0025014E-1,-1.2396334E0,-3.6331746E-1,3.2422456E-1,-2.7340627E-1,2.772083E-1,-1.1588173E0,4.386429E-1,8.353063E-1,-3.0494434E-1,4.8280063E-1,-5.8962935E-1,4.2464218E-1,1.7037918E-1,-6.3415927E-1,-3.0885568E-1,-1.3308088E0,-4.730717E-1,4.3847325E-1,-1.0462569E0,-3.0051306E-1,-4.4015992E-1,-1.1836202E0,1.6369368E-1,-8.6439055E-1,-7.9361033E-1,4.0579325E-1,-1.1450115E0,-1.4085105E-1,-1.6725515E-1,-1.0574707E0,-1.1875325E0,-2.1633877E-1,-8.6493E-1,-1.2277782E0,-1.7141737E-1,9.785426E-1,-5.9291005E-1,-1.8494034E-1,-8.3725643E-1,-5.959203E-1,1.2260987E0,-1.4162853E-1,-1.2128764E0,9.661859E-3,-5.475202E-1,1.337103E0,-1.6372283E-1,-1.005414E0,-1.1873437E0,-9.982161E-1,-1.2871367E0,-2.7607104E-1,-1.0633788E0,-6.7214364E-1,-7.5382924E-1,-1.2171098E0,-1.2176028E0,-7.852025E-1,-1.6136795E-1,-1.0550206E0,-1.2399036E0,-1.3065795E0,8.0403817E-1,-1.123799E0,-1.9877958E-1,-1.2637758E0,-3.3100918E-1,-1.2028059E0,-5.157856E-1,-1.3333554E0,-1.3552258E0,-1.1163723E0,-1.1963085E0,-1.2941763E0,-1.3199568E0,-1.3382598E0],"categories":[],"categories_nodes":[],"categories_segments":[],"categories_sizes":[],"default_left":[1,1,1,1,1,1,1,1,1,1,1,1,1,1,1,1,1,1,1,1,1,1,0,1,1,1,1,1,1,1,1,1,1,1,1,1,1,1,1,1,0,1,1,1,1,1,1,1,1,1,1,1,1,1,0,1,1,1,0,1,1,1,1,1,1,1,1,1,1,1,1,1,1,1,1,0,1,1,1,1,0,1,1,1,0,1,0,1,1,1,1,0,1,1,1,1,1,0,1,1,1,1,1,1,0,1,0,1,1,1,1,1,0,0,1,0,0,0,0,0,0,0,0,0,0,0,0,0,0,0,0,0,0,0,0,0,0,0,0,0,0,0,0,0,0,0,0,0,0,0,0,0,0,0,0,0,0,0,0,0,0,0,0,0,0,0,0,0,0,0,0,0,0,0,0,0,0,0,0,0,0,0,0,0,0,0,0,0,0,0,0,0,0,0,0,0,0,0,0,0,0,0,0],"id":6,"left_children":[1,3,5,7,9,11,13,15,17,19,21,23,25,27,29,31,33,35,37,39,41,43,-1,45,47,49,51,53,55,57,59,61,63,65,67,69,71,73,75,77,-1,79,81,83,85,87,89,91,93,95,97,99,101,103,-1,105,107,109,-1,111,113,115,117,119,121,123,125,127,129,131,133,135,137,139,141,-1,143,145,147,149,-1,151,153,155,-1,157,-1,159,161,163,165,-1,167,169,171,173,175,-1,177,179,181,183,185,187,-1,189,-1,191,193,195,197,199,-1,-1,201,-1,-1,-1,-1,-1,-1,-1,-1,-1,-1,-1,-1,-1,-1,-1,-1,-1,-1,-1,-1,-1,-1,-1,-1,-1,-1,-1,-1,-1,-1,-1,-1,-1,-1,-1,-1,-1,-1,-1,-1,-1,-1,-1,-1,-1,-1,-1,-1,-1,-1,-1,-1,-1,-1,-1,-1,-1,-1,-1,-1,-1,-1,-1,-1,-1,-1,-1,-1,-1,-1,-1,-1,-1,-1,-1,-1,-1,-1,-1,-1,-1,-1,-1,-1,-1,-1,-1,-1],"loss_changes":[1.0000156E3,4.7482678E2,2.713125E2,9.595945E1,5.625122E0,1.733003E2,6.2671875E1,1.4790298E1,2.032087E1,8.275879E0,3.2716675E0,1.7710968E1,4.0823242E1,2.1710938E1,1.803125E1,1.0485611E1,9.277046E0,7.914444E0,1.0931475E1,2.502716E0,2.1266327E0,1.3158569E0,0E0,1.0445068E1,8.570248E0,6.760742E0,6.967285E0,1.7626953E0,1.021875E1,5.34375E0,6.7773438E0,7.3349104E0,6.6440983E0,8.370811E0,8.446516E0,7.2977905E0,6.575708E0,5.644679E0,3.6498504E0,9.6691895E-1,0E0,3.4998248E0,1.9872437E0,2.003868E0,9.110718E-1,7.1443863E0,5.2117004E0,5.8571177E0,2.7017002E0,2.1062012E0,1.5097656E0,6.770752E0,4.4845276E0,6.767578E-1,0E0,8.951172E0,1.0891113E0,2.1875E0,0E0,2.1455078E0,5.9765625E-1,4.474774E0,3.207059E0,4.947555E0,3.6328425E0,5.7451286E0,4.880001E0,6.3330994E0,7.273997E0,7.7106543E0,6.5307846E0,2.9252691E0,5.611824E0,3.239334E0,5.176056E0,0E0,2.471107E0,2.9926453E0,4.523468E-1,1.1505924E0,0E0,2.720726E0,2.931343E0,5.666981E-1,0E0,4.9731445E-1,0E0,2.3727112E0,1.8208933E0,6.459858E0,3.6105347E0,0E0,6.56858E0,4.2386255E0,6.5272903E0,3.9297447E0,8.4246826E-1,0E0,1.0595703E0,9.089569E0,2.4945984E0,4.4012146E0,1.5822296E0,6.0375977E-1,0E0,6.1766357E0,0E0,6.7944336E-1,2.3946533E0,3.0820312E0,1.90625E0,1.6972656E0,0E0,0E0,2.34375E-1,0E0,0E0,0E0,0E0,0E0,0E0,0E0,0E0,0E0,0E0,0E0,0E0,0E0,0E0,0E0,0E0,0E0,0E0,0E0,0E0,0E0,0E0,0E0,0E0,0E0,0E0,0E0,0E0,0E0,0E0,0E0,0E0,0E0,0E0,0E0,0E0,0E0,0E0,0E0,0E0,0E0,0E0,0E0,0E0,0E0,0E0,0E0,0E0,0E0,0E0,0E0,0E0,0E0,0E0,0E0,0E0,0E0,0E0,0E0,0E0,0E0,0E0,0E0,0E0,0E0,0E0,0E0,0E0,0E0,0E0,0E0,0E0,0E0,0E0,0E0,0E0,0E0,0E0,0E0,0E0,0E0,0E0,0E0,0E0,0E0,0E0,0E0,0E0],"parents":[2147483647,0,0,1,1,2,2,3,3,4,4,5,5,6,6,7,7,8,8,9,9,10,10,11,11,12,12,13,13,14,14,15,15,16,16,17,17,18,18,19,19,20,20,21,21,23,23,24,24,25,25,26,26,27,27,28,28,29,29,30,30,31,31,32,32,33,33,34,34,35,35,36,36,37,37,38,38,39,39,41,41,42,42,43,43,44,44,45,45,46,46,47,47,48,48,49,49,50,50,51,51,52,52,53,53,55,55,56,56,57,57,59,59,60,60,61,61,62,62,63,63,64,64,65,65,66,66,67,67,68,68,69,69,70,70,71,71,72,72,73,73,74,74,76,76,77,77,78,78,79,79,81,81,82,82,83,83,85,85,87,87,88,88,89,89,90,90,92,92,93,93,94,94,95,95,96,96,98,98,99,99,100,100,101,101,102,102,103,103,105,105,107,107,108,108,109,109,110,110,111,111,114,114],"right_children":[2,4,6,8,10,12,14,16,18,20,22,24,26,28,30,32,34,36,38,40,42,44,-1,46,48,50,52,54,56,58,60,62,64,66,68,70,72,74,76,78,-1,80,82,84,86,88,90,92,94,96,98,100,102,104,-1,106,108,110,-1,112,114,116,118,120,122,124,126,128,130,132,134,136,138,140,142,-1,144,146,148,150,-1,152,154,156,-1,158,-1,160,162,164,166,-1,168,170,172,174,176,-1,178,180,182,184,186,188,-1,190,-1,192,194,196,198,200,-1,-1,202,-1,-1,-1,-1,-1,-1,-1,-1,-1,-1,-1,-1,-1,-1,-1,-1,-1,-1,-1,-1,-1,-1,-1,-1,-1,-1,-1,-1,-1,-1,-1,-1,-1,-1,-1,-1,-1,-1,-1,-1,-1,-1,-1,-1,-1,-1,-1,-1,-1,-1,-1,-1,-1,-1,-1,-1,-1,-1,-1,-1,-1,-1,-1,-1,-1,-1,-1,-1,-1,-1,-1,-1,-1,-1,-1,-1,-1,-1,-1,-1,-1,-1,-1,-1,-1,-1,-1,-1],"split_conditions":[-1.7295E1,-1.0570433E0,-1.0572971E0,-4.1065097E0,-1.6794762E-1,-7.751663E-2,-2.4154324E-2,-2.4718161E-1,-1.6647586E-1,1.1315884E1,1.1496099E3,-4.69373E0,-3.726497E1,3.5251915E0,1.0475037E1,-3.1064999E1,-6.2551956E0,-2.3651147E-1,1.557334E1,-1.6938272E-1,1.1991159E1,-1.24245E2,2.1038588E-2,-2.4186865E1,-4.5069666E-3,-9.85E-1,-1.4926092E1,-1.1077419E-1,-7.199678E-2,1.85295E2,9.482432E-3,-3.1475025E-1,-1.0845378E-1,-7.731161E-1,-2.9130001E1,1.4560961E1,-3.4386075E-1,-3.767E1,-3.771626E0,-3.5302982E-1,2.5957657E-2,1.5341326E1,-1.76337E-1,8.7398124E-1,4.942774E2,-7.923828E-2,-1.3101532E-1,-4.574809E0,5.1E-1,-5.7519898E-2,-7.082173E-2,-3.167802E-2,-8.55E-1,-1.1080581E-1,-1.3206688E-1,-7.2035715E-2,1.6846903E1,1.0500535E-2,3.4410797E-2,9.4745895E-3,1.0476392E1,-1.0740459E0,-5.6945E1,-5.039752E1,-2.867157E-1,-4.858E1,-1.7755001E1,-2.184512E-1,-2.0758691E-1,-2.6125E1,-5.810146E-1,1.4321192E1,-3.066E1,-3.7477084E-2,-1.10273816E-1,1.4056952E-1,-5.5948625E0,-3.6978722E-1,-7.9675E1,-4.4424415E-1,8.7177925E-2,-1.7796543E-1,2.5466528E0,-2.9402994E1,3.439797E-2,-1.7305E1,-2.7499074E-2,-6.721435E-2,1.574346E1,1.5530914E1,-1.0645E1,1.2785056E-1,-1.6755001E1,1.6016682E1,-2.3772165E-1,-7.818392E-1,1.5786452E1,-1.8062055E-2,2.1105586E-1,1.5575134E1,-7.8450003E0,-7.157083E-2,-7.1024075E-2,-2.295E0,-2.0177562E-2,3.5290399E0,1.0190632E-1,1.422155E1,1.6902134E1,-1.4885E1,7.311E1,-5.1949997E0,-7.7690664E-3,-2.8996155E-2,4.7848493E-2,-1.135442E-1,-7.021708E-3,3.4521498E-2,-8.3588E-2,-5.0708916E-2,4.773689E-2,2.4636958E-2,-1.0522198E-1,1.3748973E-2,-1.03717625E-1,-5.3054776E-2,1.0025014E-2,-1.2396335E-1,-3.6331747E-2,3.2422457E-2,-2.7340626E-2,2.772083E-2,-1.1588173E-1,4.386429E-2,8.353063E-2,-3.0494435E-2,4.8280064E-2,-5.8962937E-2,4.246422E-2,1.7037919E-2,-6.341593E-2,-3.0885568E-2,-1.3308088E-1,-4.730717E-2,4.3847326E-2,-1.04625694E-1,-3.0051306E-2,-4.4015992E-2,-1.18362024E-1,1.6369369E-2,-8.643906E-2,-7.936104E-2,4.0579326E-2,-1.14501156E-1,-1.4085106E-2,-1.6725516E-2,-1.0574707E-1,-1.18753254E-1,-2.1633876E-2,-8.6493E-2,-1.2277782E-1,-1.7141737E-2,9.7854264E-2,-5.9291005E-2,-1.8494034E-2,-8.3725646E-2,-5.9592035E-2,1.2260987E-1,-1.4162853E-2,-1.21287644E-1,9.661859E-4,-5.4752022E-2,1.3371031E-1,-1.6372284E-2,-1.00541405E-1,-1.18734375E-1,-9.982161E-2,-1.2871367E-1,-2.7607104E-2,-1.0633788E-1,-6.721436E-2,-7.5382926E-2,-1.2171098E-1,-1.2176029E-1,-7.852025E-2,-1.6136795E-2,-1.0550206E-1,-1.2399036E-1,-1.3065796E-1,8.040382E-2,-1.123799E-1,-1.9877959E-2,-1.2637758E-1,-3.3100918E-2,-1.20280586E-1,-5.157856E-2,-1.3333555E-1,-1.3552259E-1,-1.11637235E-1,-1.1963085E-1,-1.2941764E-1,-1.3199568E-1,-1.3382599E-1],"split_indices":[1,0,0,0,3,3,3,3,3,0,0,0,0,0,0,1,0,4,2,3,0,1,0,0,4,1,0,3,3,1,4,4,4,4,1,2,3,1,0,4,0,2,4,3,0,3,3,0,1,3,3,3,1,3,0,3,0,3,0,4,0,3,1,0,3,1,1,3,3,1,4,2,1,3,3,0,4,4,1,3,0,4,4,4,0,1,0,4,2,2,1,0,1,2,3,4,2,0,3,2,1,3,3,1,0,0,0,2,0,1,1,1,0,0,4,0,0,0,0,0,0,0,0,0,0,0,0,0,0,0,0,0,0,0,0,0,0,0,0,0,0,0,0,0,0,0,0,0,0,0,0,0,0,0,0,0,0,0,0,0,0,0,0,0,0,0,0,0,0,0,0,0,0,0,0,0,0,0,0,0,0,0,0,0,0,0,0,0,0,0,0,0,0,0,0,0,0,0,0,0,0,0,0],"split_type":[0,0,0,0,0,0,0,0,0,0,0,0,0,0,0,0,0,0,0,0,0,0,0,0,0,0,0,0,0,0,0,0,0,0,0,0,0,0,0,0,0,0,0,0,0,0,0,0,0,0,0,0,0,0,0,0,0,0,0,0,0,0,0,0,0,0,0,0,0,0,0,0,0,0,0,0,0,0,0,0,0,0,0,0,0,0,0,0,0,0,0,0,0,0,0,0,0,0,0,0,0,0,0,0,0,0,0,0,0,0,0,0,0,0,0,0,0,0,0,0,0,0,0,0,0,0,0,0,0,0,0,0,0,0,0,0,0,0,0,0,0,0,0,0,0,0,0,0,0,0,0,0,0,0,0,0,0,0,0,0,0,0,0,0,0,0,0,0,0,0,0,0,0,0,0,0,0,0,0,0,0,0,0,0,0,0,0,0,0,0,0,0,0,0,0,0,0,0,0,0,0,0,0],"sum_hessian":[1.1409477E5,1.92513E3,1.1216964E5,8.998402E2,1.0252898E3,4.0442021E3,1.0812544E5,5.090485E2,3.9079175E2,6.463043E2,3.7898544E2,6.8888184E2,3.3553203E3,8.972319E3,9.915312E4,1.5914442E2,3.4990405E2,3.351792E2,5.561255E1,4.361007E2,2.1020364E2,3.7755225E2,1.4331867E0,5.9982385E2,8.905799E1,2.1362244E3,1.219096E3,5.0210215E3,3.9512986E3,6.891304E4,3.0240076E4,1.0157994E2,5.756448E1,2.1378004E2,1.3612402E2,2.7786136E2,5.7317844E1,4.0393185E1,1.5219363E1,4.3506265E2,1.038038E0,5.47883E0,2.0472481E2,5.392727E0,3.7215952E2,1.18154686E2,4.816692E2,6.2276917E1,2.6781076E1,5.560201E2,1.5802042E3,7.2905383E2,4.9004208E2,2.0556636E3,2.9653577E3,1.3047598E3,2.6465388E3,6.891155E4,1.4966927E0,6.238825E3,2.400125E4,7.52833E1,2.6296638E1,4.992014E1,7.644339E0,5.345996E1,1.6032008E2,3.9460365E1,9.666365E1,8.179623E1,1.9606512E2,3.190886E1,2.5408987E1,1.9747858E1,2.0645329E1,2.236354E0,1.2983009E1,2.7643243E2,1.5863022E2,4.1559563E0,1.3228736E0,1.6378374E2,4.094108E1,4.0147376E0,1.3779893E0,3.7035913E2,1.8003904E0,1.1385913E2,4.2955585E0,1.8632301E2,2.9534616E2,2.455743E0,5.982117E1,1.4876198E1,1.1904879E1,4.1556427E1,5.144637E2,1.5898112E0,1.5786144E3,3.9717667E2,3.3187717E2,2.9948343E2,1.9055865E2,2.054653E3,1.010457E0,1.3035298E3,1.2299796E0,1.4149664E3,1.2315723E3,9.487085E3,5.942446E4,6.2372295E3,1.595722E0,1.1893793E0,2.400006E4,3.1847632E0,7.209854E1,1.9908133E0,2.4305826E1,4.920341E0,4.4999798E1,2.9544592E0,4.68988E0,4.301764E0,4.9158195E1,1.4726631E2,1.3053774E1,1.1614534E1,2.7845833E1,2.7801212E1,6.886244E1,7.88497E1,2.9465225E0,1.3235216E2,6.3712967E1,4.957777E0,2.6951082E1,1.8683268E1,6.72572E0,1.2854504E1,6.893354E0,9.96915E0,1.0676178E1,3.1881828E0,9.7948265E0,2.6994977E2,6.482662E0,2.372866E0,1.5625735E2,1.1059415E0,3.050015E0,1.6243742E2,1.3463035E0,3.7469105E1,3.4719737E0,1.4375906E0,2.577147E0,3.69335E2,1.0241482E0,7.71848E1,3.667433E1,3.1237836E0,1.1717747E0,1.293386E2,5.6984413E1,1.12363686E2,1.8298248E2,2.7394092E0,5.7081764E1,1.1202014E1,3.674184E0,1.0698229E1,1.2066498E0,7.0917144E0,3.446471E1,4.4433954E2,7.0124115E1,1.5769559E3,1.6584443E0,3.1524667E2,8.192999E1,1.8366495E1,3.1351068E2,2.9261524E1,2.702219E2,2.4007094E0,1.8815794E2,1.2141243E3,8.405289E2,1.0032537E0,1.3025265E3,1.0075539E0,1.4139589E3,4.0653615E0,1.227507E3,6.2770658E0,9.480809E3,5.9359676E4,6.478411E1,3.7192105E2,5.8653086E3,1.1223083E4,1.2776979E4],"tree_param":{"num_deleted":"0","num_feature":"5","num_nodes":"203","size_leaf_vector":"0"}},{"base_weights":[-1.2633624E0,-6.1927134E-1,-1.2768342E0,-1.3841736E-1,-1.0125116E0,-1.0215825E0,-1.2863461E0,-5.084022E-1,7.905857E-2,-1.1035577E0,-9.372079E-1,-6.46769E-1,-1.1290606E0,-1.2013564E0,-1.2940433E0,-3.741801E-1,-6.567698E-1,2.9041892E-1,-1.0314412E-1,-1.0107884E0,-1.1853167E0,-8.376326E-1,-1.0601763E0,-7.702084E-1,-4.1987202E-1,-1.201831E0,-9.814654E-1,-1.2423899E0,-1.1235914E0,-1.3016192E0,-1.2662182E0,-1.3753585E0,-3.442258E-1,-7.469969E-1,-2.5998384E-1,-5.059349E-2,3.5833457E-1,-5.6687313E-1,-2.6800957E-2,-1.022789E0,-2.381994E-1,-1.1880661E0,-2.914672E-1,-8.5047615E-1,-2.7454084E-2,2.2362085E-1,-1.0735E0,-8.45862E-1,-6.413526E-1,-1.1615723E-1,-5.174916E-1,-1.1182489E0,-1.2308773E0,-1.0287987E0,-7.7261907E-1,-1.1869731E0,-1.2567201E0,-9.802039E-1,-1.1588565E0,-1.2867147E0,-1.3073561E0,-1.1836416E0,-1.2700957E0,-5.8723396E-1,-2.176234E-1,-9.7703665E-1,-6.319517E-1,5.249652E-1,-3.5835025E-1,-1.2946045E-1,1.2114825E0,3.0936992E-1,9.5224303E-1,1.00450404E-1,-6.645848E-1,-1.5419854E-1,1.5737475E-1,-7.090246E-1,-1.0543803E0,-9.543682E-1,5.1983535E-1,-1.1908245E0,-3.5614264E-1,-7.464486E-1,-9.8021245E-1,-6.982014E-1,1.0625749E0,-8.0333877E-1,1.1295795E0,-1.0956149E0,-5.089071E-1,-9.416154E-1,-7.271304E-1,1.2599963E-1,-6.809316E-1,1.2574181E-1,-4.2890355E-1,6.236879E-1,-5.376422E-1,-1.144814E0,-9.1278136E-1,-1.2320058E0,-3.291554E-1,-1.1017702E0,-9.136933E-1,-1.9948015E-1,-8.3018523E-1,-7.439074E-1,-1.1912802E0,-1.1844907E0,-1.2627733E0,-1.0117369E0,-4.090181E-1,-1.0919857E0,-1.1773828E0,-1.6483834E-2,-1.2868514E0,-1.3073968E0,2.4632065E-1,-1.1554708E0,-1.259035E0,-1.2586039E0,-1.2906705E0,-8.262693E-1,-2.573513E-1,-3.858441E-1,1.3399145E-1,-3.1448686E-1,-1.0122234E0,3.001402E-1,-7.163131E-1,-2.4850252E-1,1.2123936E0,7.9026693E-1,-4.3934393E-1,-2.7097473E-1,3.7525097E-1,4.580895E-1,1.3985257E-1,6.394069E-2,1.1593487E0,8.704961E-1,-5.9937394E-1,-1.1985402E0,-3.8991502E-1,-5.307185E-1,4.594693E-3,-1.1783572E0,2.067703E-1,-8.13358E-1,3.5559464E-1,-7.0000124E-1,-1.0708681E0,1.0945463E0,-3.0616552E-1,-1.1935085E0,-4.301191E-1,-7.618642E-1,1.0242723E0,-3.6187112E-1,-1.0049686E0,2.749282E-1,-1.0301245E0,1.2842839E0,3.083149E-1,-1.1063826E0,-2.0647705E-1,3.4097752E-1,-7.4269897E-1,-8.731516E-1,-1.0782566E0,-1.0194024E0,-6.123825E-1,1.2363988E0,-7.9135394E-1,-3.59937E-1,-7.52568E-1,-3.326555E-1,5.687435E-1,-7.260278E-1,2.3424608E-1,-3.2473058E-1,1.046343E0,-9.014906E-1,-4.7680157E-1,-2.2602852E-1,-1.1464112E0,3.162708E-1,-9.611446E-1,-1.0816835E0,-1.2405685E0,-6.8776816E-1,-1.1125146E0,-7.06786E-1,-1.0216342E0,6.160379E-1,-7.036466E-1,-6.4246476E-1,-9.806428E-1,-9.5876837E-1,1.004013E-1,-1.1944965E0,-7.153781E-1,-1.1892067E0,-3.1505418E-1,-1.0852706E0,-9.2018294E-1,-5.428087E-1,2.3208584E-1,-1.0952494E0,1.994028E-1,-1.1794839E0,-4.9289393E-1,-6.94276E-1,6.080389E-1,-1.2868985E0,-2.2514777E-1,-1.2361777E0,-1.3081707E0,-4.566365E-1,-1.1611136E0,-1.2661697E0,-6.973008E-1,-1.2586793E0,-2.2915575E-1,-5.2929133E-1,-1.2909485E0],"categories":[],"categories_nodes":[],"categories_segments":[],"categories_sizes":[],"default_left":[1,1,1,1,1,1,1,1,1,1,1,1,1,1,1,1,1,1,1,1,1,1,1,1,1,1,1,1,1,1,1,0,1,1,1,1,1,1,1,1,1,1,0,1,1,1,1,1,1,1,1,1,1,1,1,1,1,1,1,1,1,1,1,1,1,1,1,1,1,1,0,1,1,1,1,1,1,1,1,0,1,1,0,1,1,1,1,0,0,1,1,1,1,1,1,1,1,1,1,1,1,1,0,1,1,1,1,1,1,1,0,1,1,1,1,1,1,1,0,1,1,1,1,0,0,0,0,0,0,0,0,0,0,0,0,0,0,0,0,0,0,0,0,0,0,0,0,0,0,0,0,0,0,0,0,0,0,0,0,0,0,0,0,0,0,0,0,0,0,0,0,0,0,0,0,0,0,0,0,0,0,0,0,0,0,0,0,0,0,0,0,0,0,0,0,0,0,0,0,0,0,0,0,0,0,0,0,0,0,0,0,0,0,0,0,0,0,0,0,0,0,0,0,0,0,0,0],"id":7,"left_children":[1,3,5,7,9,11,13,15,17,19,21,23,25,27,29,31,33,35,37,39,41,43,45,47,49,51,53,55,57,59,61,-1,63,65,67,69,71,73,75,77,79,81,-1,83,85,87,89,91,93,95,97,99,101,103,105,107,109,111,113,115,117,119,121,123,125,127,129,131,133,135,-1,137,139,141,143,145,147,149,151,-1,153,155,-1,157,159,161,163,-1,-1,165,167,169,171,173,175,177,179,181,183,185,187,189,-1,191,193,195,197,199,201,203,-1,205,207,209,211,213,215,217,-1,219,221,223,225,-1,-1,-1,-1,-1,-1,-1,-1,-1,-1,-1,-1,-1,-1,-1,-1,-1,-1,-1,-1,-1,-1,-1,-1,-1,-1,-1,-1,-1,-1,-1,-1,-1,-1,-1,-1,-1,-1,-1,-1,-1,-1,-1,-1,-1,-1,-1,-1,-1,-1,-1,-1,-1,-1,-1,-1,-1,-1,-1,-1,-1,-1,-1,-1,-1,-1,-1,-1,-1,-1,-1,-1,-1,-1,-1,-1,-1,-1,-1,-1,-1,-1,-1,-1,-1,-1,-1,-1,-1,-1,-1,-1,-1,-1,-1,-1,-1,-1,-1,-1,-1,-1,-1,-1],"loss_changes":[9.292656E2,4.1546918E2,2.5360938E2,7.9696E1,7.2543945E0,1.5141113E2,6.46875E1,7.0551605E0,2.407403E1,2.9101562E0,7.295349E0,2.3314697E1,3.0330322E1,2.5469727E1,1.790625E1,5.3688145E0,5.992508E0,6.7185783E0,1.188155E1,2.1718445E0,3.470459E-1,3.868866E0,5.29068E0,4.774353E0,8.821667E0,3.3830566E0,8.835876E0,2.8779297E0,1.362207E1,4.5546875E0,4.8691406E0,0E0,5.7325153E0,3.0945282E0,2.778569E0,5.0266976E0,6.7249985E0,3.1609068E0,6.819068E0,1.7923279E0,3.3671114E0,2.2055054E-1,0E0,4.2373047E0,5.765167E0,4.4992404E0,3.0934448E0,3.1865387E0,6.339096E0,5.6640472E0,5.5418015E0,1.7744141E0,1.0649414E0,5.63916E0,5.9059525E0,1.3054199E0,4.0820312E-1,1.0079285E1,1.609375E0,3.5078125E0,3.625E0,4.7155762E-1,2.8652344E0,4.885828E0,7.5533347E0,7.2909546E-1,7.7897415E0,2.5034828E0,3.1760545E0,3.455139E0,0E0,5.5952225E0,3.219696E0,4.255986E0,5.622492E0,1.0267342E1,8.088824E0,3.2318754E0,5.986023E-1,0E0,1.8620272E0,5.7434082E-2,0E0,6.472496E0,2.0955353E0,1.8519604E0,1.0801935E-1,0E0,0E0,2.4572449E0,2.8142862E0,7.901764E-1,4.621193E0,1.2125105E1,4.235054E0,8.837441E0,6.5872965E0,2.1001382E0,4.507141E0,4.0631104E-1,4.1123924E0,5.151367E-1,0E0,1.3671875E0,6.264862E0,7.8805766E0,4.0841827E0,2.5851111E0,8.8378906E-1,1.0720215E0,0E0,2.713745E0,2.8843317E0,2.413147E0,2.0322266E0,1.7775897E0,7.2265625E-1,1.2890625E0,0E0,2.121521E0,6.1187744E-2,6.6015625E-1,7.480469E-1,0E0,0E0,0E0,0E0,0E0,0E0,0E0,0E0,0E0,0E0,0E0,0E0,0E0,0E0,0E0,0E0,0E0,0E0,0E0,0E0,0E0,0E0,0E0,0E0,0E0,0E0,0E0,0E0,0E0,0E0,0E0,0E0,0E0,0E0,0E0,0E0,0E0,0E0,0E0,0E0,0E0,0E0,0E0,0E0,0E0,0E0,0E0,0E0,0E0,0E0,0E0,0E0,0E0,0E0,0E0,0E0,0E0,0E0,0E0,0E0,0E0,0E0,0E0,0E0,0E0,0E0,0E0,0E0,0E0,0E0,0E0,0E0,0E0,0E0,0E0,0E0,0E0,0E0,0E0,0E0,0E0,0E0,0E0,0E0,0E0,0E0,0E0,0E0,0E0,0E0,0E0,0E0,0E0,0E0,0E0,0E0,0E0,0E0,0E0,0E0,0E0,0E0,0E0,0E0],"parents":[2147483647,0,0,1,1,2,2,3,3,4,4,5,5,6,6,7,7,8,8,9,9,10,10,11,11,12,12,13,13,14,14,15,15,16,16,17,17,18,18,19,19,20,20,21,21,22,22,23,23,24,24,25,25,26,26,27,27,28,28,29,29,30,30,32,32,33,33,34,34,35,35,36,36,37,37,38,38,39,39,40,40,41,41,43,43,44,44,45,45,46,46,47,47,48,48,49,49,50,50,51,51,52,52,53,53,54,54,55,55,56,56,57,57,58,58,59,59,60,60,61,61,62,62,63,63,64,64,65,65,66,66,67,67,68,68,69,69,71,71,72,72,73,73,74,74,75,75,76,76,77,77,78,78,80,80,81,81,83,83,84,84,85,85,86,86,89,89,90,90,91,91,92,92,93,93,94,94,95,95,96,96,97,97,98,98,99,99,100,100,101,101,103,103,104,104,105,105,106,106,107,107,108,108,109,109,111,111,112,112,113,113,114,114,115,115,116,116,117,117,119,119,120,120,121,121,122,122],"right_children":[2,4,6,8,10,12,14,16,18,20,22,24,26,28,30,32,34,36,38,40,42,44,46,48,50,52,54,56,58,60,62,-1,64,66,68,70,72,74,76,78,80,82,-1,84,86,88,90,92,94,96,98,100,102,104,106,108,110,112,114,116,118,120,122,124,126,128,130,132,134,136,-1,138,140,142,144,146,148,150,152,-1,154,156,-1,158,160,162,164,-1,-1,166,168,170,172,174,176,178,180,182,184,186,188,190,-1,192,194,196,198,200,202,204,-1,206,208,210,212,214,216,218,-1,220,222,224,226,-1,-1,-1,-1,-1,-1,-1,-1,-1,-1,-1,-1,-1,-1,-1,-1,-1,-1,-1,-1,-1,-1,-1,-1,-1,-1,-1,-1,-1,-1,-1,-1,-1,-1,-1,-1,-1,-1,-1,-1,-1,-1,-1,-1,-1,-1,-1,-1,-1,-1,-1,-1,-1,-1,-1,-1,-1,-1,-1,-1,-1,-1,-1,-1,-1,-1,-1,-1,-1,-1,-1,-1,-1,-1,-1,-1,-1,-1,-1,-1,-1,-1,-1,-1,-1,-1,-1,-1,-1,-1,-1,-1,-1,-1,-1,-1,-1,-1,-1,-1,-1,-1,-1,-1],"split_conditions":[-1.5285E1,-1.0607529E0,-1.0572971E0,-6.157565E0,4.555106E0,-5.7989113E-2,-2.3365382E-2,-1.6334769E-1,-3.055301E-1,-2.311E1,-3.1131983E-1,-9.837514E0,-3.7533295E1,5.8063984E0,1.8017746E1,-2.5663849E1,-1.6375E1,-2.526349E0,1.4354332E1,-2.3255001E1,8.228846E0,-3.180898E-1,1.4235382E1,1.512659E1,-2.2109307E-1,-8.95E-1,1.5576349E1,-6.295E0,-9.171491E-2,2.628713E-2,-1.565E0,-1.3753586E-1,-1.4772945E1,-1.3889772E1,-1.53754E0,-1.2795647E0,-3.1831574E-1,-4.947E1,-3.841738E0,-2.028533E0,-2.5958502E-1,-1.5305E1,-2.914672E-2,-1.7596455E-1,-2.1785E1,1.4226568E1,2.0365068E2,-1.6511574E1,1.5172222E1,-1.585E0,-9.773613E0,1.5929314E1,1.8885E1,-1.4864197E1,1.5648705E1,1.4233553E1,-7.2884107E-1,1.7678952E2,-6.0780562E-2,-1.4885E1,1.8166E2,2.327406E-2,6.766383E-2,-2.2415E1,1.5492976E1,-1.539834E-1,-1.1700309E1,-3.021223E0,-8.454902E1,-4.5995E1,1.2114825E-1,-5.039917E-1,-9.8543507E-1,-7.397373E-1,-5.677806E-1,-3.048E1,-3.0560785E2,-2.1556752E0,1.4286941E1,-9.543682E-2,-6.342606E-2,1.00794525E1,-3.5614263E-2,-1.7659885E-1,-3.6206276E1,1.4621199E1,2.0223204E1,-8.033388E-2,1.12957954E-1,-1.5375E1,-2.8465E1,1.4748339E1,-3.7277573E-1,-2.3059049E-1,-1.302168E-1,-2.2725263E-1,2.38E0,-1.1255E1,-1.7883942E0,-5.740698E-2,1.5956803E1,-2.737288E-2,-3.291554E-2,-1.4716264E1,-2.605E0,-3.532759E-2,-1.2107283E-1,-7.235E0,-6.325E0,1.5905E1,-1.2627733E-1,1.5161034E1,-1.0012791E-1,-6.082032E-2,1.0055E1,-1.505E1,2.628576E-2,-4.7349997E0,2.4632065E-2,-1.3975E1,2.2961608E-1,6.7625664E-2,-7.5E-1,-8.262693E-2,-2.573513E-2,-3.858441E-2,1.3399146E-2,-3.144869E-2,-1.0122234E-1,3.0014021E-2,-7.163131E-2,-2.4850253E-2,1.21239364E-1,7.902669E-2,-4.3934394E-2,-2.7097473E-2,3.75251E-2,4.5808952E-2,1.3985257E-2,6.394069E-3,1.1593487E-1,8.704961E-2,-5.9937395E-2,-1.19854026E-1,-3.8991503E-2,-5.3071853E-2,4.594693E-4,-1.1783572E-1,2.067703E-2,-8.1335805E-2,3.5559464E-2,-7.000013E-2,-1.07086815E-1,1.0945463E-1,-3.0616552E-2,-1.1935085E-1,-4.301191E-2,-7.618642E-2,1.0242724E-1,-3.6187112E-2,-1.00496866E-1,2.7492821E-2,-1.0301246E-1,1.2842838E-1,3.083149E-2,-1.1063826E-1,-2.0647705E-2,3.4097753E-2,-7.42699E-2,-8.7315165E-2,-1.0782566E-1,-1.0194024E-1,-6.1238248E-2,1.2363988E-1,-7.9135396E-2,-3.5993703E-2,-7.52568E-2,-3.326555E-2,5.6874353E-2,-7.260278E-2,2.3424609E-2,-3.2473058E-2,1.046343E-1,-9.014907E-2,-4.768016E-2,-2.2602852E-2,-1.1464112E-1,3.162708E-2,-9.6114464E-2,-1.08168356E-1,-1.2405685E-1,-6.8776816E-2,-1.11251466E-1,-7.06786E-2,-1.0216343E-1,6.1603792E-2,-7.036466E-2,-6.4246476E-2,-9.806428E-2,-9.5876835E-2,1.004013E-2,-1.1944965E-1,-7.1537815E-2,-1.1892068E-1,-3.1505417E-2,-1.08527064E-1,-9.20183E-2,-5.4280873E-2,2.3208585E-2,-1.0952494E-1,1.994028E-2,-1.1794839E-1,-4.9289394E-2,-6.94276E-2,6.080389E-2,-1.2868986E-1,-2.2514777E-2,-1.2361777E-1,-1.3081707E-1,-4.566365E-2,-1.1611136E-1,-1.2661697E-1,-6.973008E-2,-1.2586793E-1,-2.2915576E-2,-5.2929133E-2,-1.2909485E-1],"split_indices":[1,0,0,0,0,3,3,3,3,1,4,0,0,0,0,4,1,4,2,1,3,4,2,2,3,1,2,1,3,3,1,0,0,0,4,0,3,1,0,3,3,1,0,3,1,2,0,0,2,1,0,2,1,0,2,2,3,0,3,1,1,3,4,1,2,3,0,4,0,1,0,4,4,4,4,1,4,3,2,0,3,4,0,3,4,2,0,0,0,1,1,2,4,4,3,4,1,1,4,3,2,3,0,4,1,3,4,1,1,1,0,2,3,3,1,1,3,1,0,1,3,4,1,0,0,0,0,0,0,0,0,0,0,0,0,0,0,0,0,0,0,0,0,0,0,0,0,0,0,0,0,0,0,0,0,0,0,0,0,0,0,0,0,0,0,0,0,0,0,0,0,0,0,0,0,0,0,0,0,0,0,0,0,0,0,0,0,0,0,0,0,0,0,0,0,0,0,0,0,0,0,0,0,0,0,0,0,0,0,0,0,0,0,0,0,0,0,0,0,0,0,0,0,0,0,0,0],"split_type":[0,0,0,0,0,0,0,0,0,0,0,0,0,0,0,0,0,0,0,0,0,0,0,0,0,0,0,0,0,0,0,0,0,0,0,0,0,0,0,0,0,0,0,0,0,0,0,0,0,0,0,0,0,0,0,0,0,0,0,0,0,0,0,0,0,0,0,0,0,0,0,0,0,0,0,0,0,0,0,0,0,0,0,0,0,0,0,0,0,0,0,0,0,0,0,0,0,0,0,0,0,0,0,0,0,0,0,0,0,0,0,0,0,0,0,0,0,0,0,0,0,0,0,0,0,0,0,0,0,0,0,0,0,0,0,0,0,0,0,0,0,0,0,0,0,0,0,0,0,0,0,0,0,0,0,0,0,0,0,0,0,0,0,0,0,0,0,0,0,0,0,0,0,0,0,0,0,0,0,0,0,0,0,0,0,0,0,0,0,0,0,0,0,0,0,0,0,0,0,0,0,0,0,0,0,0,0,0,0,0,0,0,0,0,0,0,0,0,0,0,0,0,0,0,0,0,0],"sum_hessian":[1.0718599E5,2.1969314E3,1.0498906E5,9.8897064E2,1.2079608E3,3.7757E3,1.0121336E5,3.6561823E2,6.233524E2,5.4064185E2,6.673189E2,8.4297485E2,2.932725E3,8.418341E3,9.2795016E4,1.9380905E2,1.7180919E2,